feature,value,0,1,10,11,12,13,14,15,16,17,18,19,2,20,21,22,23,24,25,26,27,28,29,3,30,31,32,33,34,35,36,37,38,39,4,40,41,42,43,44,45,46,47,48,49,5,50,51,52,53,54,55,56,57,58,59,6,60,61,62,63,64,65,66,67,68,69,7,70,71,72,73,74,75,76,77,78,79,8,80,81,82,83,84,85,86,87,88,89,9,90,91,92,93,94,95,96,97,<s>
attn_0_0_outputs,0,2.5125542,-0.2308594,-1.1661938,0.2999545,-0.09145619,-0.6176217,1.5076021,0.13279432,-1.8112193,0.25506672,0.2724807,1.1533712,0.96802056,-0.23823,-1.7256067,-0.10791314,-1.0930734,-0.15410571,-2.138634,1.7459044,-0.08945862,-1.1348974,-1.876641,0.7448438,-0.75242853,1.02711,-0.9871119,-0.7348009,0.12164396,-0.3284326,-1.3398505,1.6853415,2.5370517,0.34352311,-0.5410049,1.1411964,-0.4211491,1.1049913,-1.3146662,0.23481831,-0.08285084,0.19834824,1.251089,-2.9956217,0.5118545,-0.8719428,-0.3894372,-1.6936419,0.45632702,-0.18832599,-0.12684262,-0.74248093,-3.0480592,0.35077402,-1.8667116,-0.94099087,-1.1694195,0.56004643,-2.7723835,-0.5911159,1.5034705,-1.0865511,-1.471503,1.5609852,2.0675745,1.3068928,-2.6987429,0.66117567,1.2622639,-0.5494934,-0.43843934,-1.5252655,1.2422506,1.9594748,-0.17902324,-1.414331,0.10345912,2.7487636,0.28431118,-0.6951031,-1.4948142,-2.29686,1.7815676,-1.6275059,-0.27306366,-1.6878011,-0.6584668,0.97029084,1.3316576,0.51071197,-2.2073712,-0.5232199,1.4132879,0.049849335,-2.5122924,1.3030512,0.8525829,1.0341271,0.3723741
attn_0_0_outputs,1,0.22726497,2.5922008,-2.6753366,-0.77936107,-1.6859559,0.9234911,-0.49373525,0.16908588,-0.120425634,-0.53824216,-1.2690494,-0.35758156,-1.0395174,0.32474783,0.95095825,-0.67333686,-0.4415001,-0.9368569,0.32232004,-0.9260539,-0.16833319,-1.0285159,1.0443447,-0.97170603,-0.026328962,0.031885017,0.81649786,1.119651,0.76560974,1.11876,0.07138923,-2.0693362,-0.11599601,1.140262,-0.6802038,0.37993985,-0.12047683,0.16001858,-1.485409,0.033202052,-0.6080938,-0.21562435,1.4547505,-0.8919919,-0.36894074,1.9161975,0.42022705,-0.30767137,0.78149694,0.92131543,0.8493176,1.7081552,-0.58239794,-1.0901465,-0.8593913,0.0843315,1.8800818,0.030487673,0.9964791,-0.6367253,-2.3820584,0.07394492,-2.1370718,-0.30425376,0.44598144,0.17269062,-0.13819171,-1.1857204,0.13254537,0.026616914,-0.4578123,-0.6517442,0.72183824,1.6783782,0.84338456,-1.6456677,1.7947571,-0.40860423,-1.3991525,1.8018888,-1.4423839,-1.5559108,-1.3806038,-0.54748505,1.3723818,-0.79967344,-1.2203059,-0.004246218,1.1854945,-0.55005956,-2.013502,-0.95094585,-1.6196747,-1.4592826,0.25462964,2.542208,0.77275175,1.2832862,0.8140114
attn_0_0_outputs,10,-3.6503084,-0.28447062,2.2995532,0.97406524,0.096389234,0.9910524,0.23469482,-1.7517898,-1.4611138,-0.8746335,0.36817443,-2.0300004,-0.8574126,0.8125201,1.5807842,1.2271152,2.9421382,-1.230832,0.79113173,-1.8311275,1.5212097,0.15545145,1.7197808,1.0685786,-1.2911062,1.5856214,-1.8744307,-1.9903598,-4.290678,0.16133855,1.2296733,-1.8600547,0.013835188,-0.4210495,0.9777669,-0.79704976,0.24490415,0.2762722,0.20214456,-0.7933169,2.0981157,-1.1090927,-1.1335003,0.41863328,-2.244992,-1.6115711,-1.9170198,-0.8718217,-1.0878878,1.7628651,0.3992075,0.2507925,-0.68671936,-0.12622064,-2.977766,0.45215076,-0.90081537,0.42139322,0.8433294,-1.3351576,2.5580258,0.64039403,-0.7194155,-2.266706,-1.466245,-1.1300805,0.07156949,1.1385428,-0.58722436,0.82005733,0.48912305,1.1933428,-0.9382351,1.5204072,-0.3718937,-3.1746314,0.7624538,2.6543694,-0.16036385,-0.026005762,-0.5067494,0.06817956,-2.9512794,1.5103674,-0.12827379,1.1717855,-1.1003153,-0.9907704,1.4754212,0.109516315,0.55998415,-1.7687477,0.12576975,0.53786176,-0.0953495,-0.51361907,0.27097887,1.3807876,1.4026401
attn_0_0_outputs,11,0.108874105,-1.833906,1.1619909,2.329742,-2.1300616,1.1108648,0.450109,-0.09288891,0.058628544,0.3916633,-0.85167384,-0.07725393,1.5828725,-2.086473,-1.4055111,-2.0715177,-0.5615531,-0.77884424,0.503869,-0.16942827,-2.1024678,0.9178619,-1.6406249,-0.8264282,-0.94844276,-0.66687846,-3.2110236,0.31783077,-0.90449876,0.87529063,-1.1694366,2.1248329,1.2126105,0.69551253,0.7540842,-0.17035103,0.30497643,0.7753347,-2.2326462,-1.15424,0.38691986,0.80010515,1.4787872,1.6882682,0.5335282,2.6444106,-0.61600363,-0.8853885,-0.011956454,-3.7940884,-1.4303714,-2.414201,-1.3862118,-2.0296614,0.63023436,0.23378807,0.007953341,1.290969,0.061455946,-0.6648758,-1.9117005,-1.0137033,1.3205268,-0.16490671,-0.040103752,-0.24596204,0.85368437,1.1970763,0.27577493,-0.4982786,-0.0902739,-1.3940067,0.22594398,0.89333624,-0.8032052,-1.5872048,0.22839704,-2.3175938,-0.16531494,1.257586,1.3995306,0.39730707,-0.72268057,-1.7447164,2.2277563,0.38218507,1.1310369,0.35914865,-0.774859,-1.2056034,0.31725046,-0.12753373,-0.96327907,-0.8523045,-1.0236406,0.97805774,1.5249506,-0.8730051,1.2096728
attn_0_0_outputs,12,-1.638114,1.0760329,-1.98723,0.43117726,2.6065738,1.6667526,1.3238208,-0.97207093,1.0954423,0.556232,0.24803245,-0.29125535,0.33354282,-0.47212252,-1.1390862,-0.34651977,-0.029402299,1.1353121,1.5111067,-0.4605137,0.24353978,-0.18973519,0.27323416,-2.0535004,0.108335026,-0.53760463,-2.1111758,0.5385655,1.5478907,-1.5600024,-0.46305677,1.9129404,0.8148955,-0.35304534,0.31288758,0.8625273,1.2585242,-0.4489093,0.8631192,0.12895359,-3.5613031,-1.4127845,-1.0284865,-3.499286,1.1510533,-0.90872216,-1.7908747,1.5419767,2.0759315,0.5796082,0.48073864,0.51133084,0.26330084,0.9667567,-0.18606147,-1.1845741,-1.8639905,-0.6267137,-0.90337336,1.1809397,-1.3716644,-1.4329922,-0.7256251,-1.6446623,-0.14622366,2.042344,0.5104022,1.4573767,-2.0770607,-0.6803508,0.79849994,0.9269019,-4.769486,0.5133072,-1.0320982,1.763944,0.29113355,0.29117766,0.26447088,0.29196003,-3.3350558,-2.5025752,-2.2797358,1.2969617,-0.7710168,1.8167367,-1.3152862,1.5702263,0.30964956,-1.7906312,-2.3575275,-2.1670675,0.60208976,0.13781999,-0.2935922,1.250693,1.361675,0.9663178,1.1943538
attn_0_0_outputs,13,0.92686224,-1.9377719,1.3361735,0.3179715,1.5359348,3.123985,-2.1774435,0.7013523,-0.71742606,-0.66456825,1.3317034,1.5131297,0.53957504,-0.4376817,0.9649352,-1.382183,1.1422969,-0.75374323,0.20493846,-1.331005,0.45310247,-0.3741533,-1.1926501,-2.440043,0.16284196,-2.6253614,-0.56417686,1.8173383,-0.456063,0.69841343,0.3308814,-0.8192179,-1.5117325,-0.8090109,-1.4463956,1.4797564,-0.6501963,1.7853631,1.4350111,-0.24880901,0.39149362,-0.30145103,1.091211,0.04201975,-2.0992887,-0.84267896,-3.1692588,1.3834502,1.2818654,-0.13423336,-2.3979409,-1.1921821,2.7234395,-4.1016316,1.2613907,-1.4127625,-3.251752,-3.1258838,0.33451244,-1.3199935,0.83926886,-2.8556006,1.5155568,-2.2644675,-0.19157553,0.69100827,-2.659843,-1.314086,-0.9233919,-0.48225915,-2.2172167,1.444681,-1.3890845,1.2634786,-1.4365408,1.6860834,-0.57896405,0.5197205,2.136097,0.7272396,0.974748,-1.4361608,0.56176,-0.4484651,0.5411544,-2.7505221,1.927125,0.68542886,-1.5737928,1.3549862,2.02564,-0.13855278,0.12276531,2.3610437,0.55720586,-1.8252789,-0.024623943,-0.57074296,-0.6079563
attn_0_0_outputs,14,0.16751829,0.31560892,2.656096,-0.20310943,0.7713014,1.9935006,1.8911821,1.587034,0.03437567,0.99603367,0.8869345,0.2904583,1.9856507,-0.33294907,0.17417918,-0.7851944,-2.4355571,0.5568318,0.3848729,1.3812977,-2.2755148,-0.05439339,1.1789073,0.91246104,3.7748723,-1.5263385,0.08355953,-3.9530962,-0.3647278,-0.77935183,-0.82425535,0.58041143,-4.12162,-1.4522661,0.24032363,0.27482188,0.097488634,1.2260376,-1.81594,0.7685395,0.53597313,2.4431844,0.3253742,-1.1319586,-0.6159973,-1.7741603,-0.51977295,0.1326091,-0.012566192,-3.6657434,0.04090328,1.9686595,-1.0872551,-1.8287046,-0.119935736,-1.4863994,1.5806414,-2.613785,-0.32495552,-0.6193128,0.42811516,0.08090735,-1.3528244,-1.5716928,-0.65018255,2.2265558,1.4307479,0.21364544,0.3816943,-1.6223469,-1.4575006,1.3247472,-2.3456292,0.87156534,1.5297853,-1.6429932,1.6071198,-1.0566484,-2.6469035,-1.6529163,-0.57274497,-2.4159176,0.8785057,1.3281616,-1.6290575,-1.0341578,-0.11215902,-0.30014428,-0.9086719,-2.5180717,1.1758013,0.57306254,0.3584838,1.0462652,-1.3672049,-4.207363,0.091753334,1.0029055,0.24200636
attn_0_0_outputs,15,-1.259811,1.4836768,0.19834946,1.9618602,-0.21128522,-5.2943377,-0.52348536,1.5491873,0.24436428,0.14817367,-0.8280434,-4.5932508,-1.9778656,3.0447838,-0.7310524,1.1375052,-0.7328051,-2.027785,-0.8582472,-0.6180083,-1.9179444,-0.9121004,-0.89960873,0.59028476,0.8157475,0.1119383,0.43967035,0.5270693,-0.11313642,-1.558579,1.1271487,-0.56180155,1.3668947,-0.077490784,-0.4898326,-1.1658919,-0.9467137,-1.2295811,-2.2540083,0.734193,-1.3187594,-2.142742,-0.33576173,1.6575055,-0.56758785,0.8862167,0.99679613,-0.60360307,-1.4170067,-4.511241,-1.4366124,1.1448165,-1.3224891,2.0215929,2.1690755,-0.0656764,-1.6235312,-0.55831265,-1.7404221,0.2536428,-0.7746292,-0.13443144,2.0389965,-0.6696092,0.19183855,-0.1866081,0.27336705,0.8303544,1.0942287,2.2611415,-0.5014416,2.0967014,-4.1636662,-2.0021923,1.5043833,0.16040002,0.91762346,1.7971394,1.1627579,-0.7600339,1.5525165,1.1206565,0.9436181,1.9102615,1.7182162,1.6368288,1.2554778,0.32264456,0.03244039,-3.5457492,-0.38858965,-0.18929896,1.0985495,0.41101927,-2.831936,-0.867753,-1.3549646,-3.116701,0.40208992
attn_0_0_outputs,16,1.0424681,-3.8598034,0.18136966,-2.6312788,-0.3953615,0.08082289,-1.1055495,-0.6879293,2.770019,1.2127157,0.6335627,1.7724416,1.7083545,1.0242865,-1.6720159,-0.4545714,1.0845013,0.798724,0.40689754,0.63033223,0.36379507,-3.7673535,-2.4759939,-1.994348,0.4570214,-0.2584723,1.399723,-3.8469167,1.4177486,0.14106883,-0.41046563,-0.55725664,1.5330092,-0.5966214,1.4178785,1.7357454,-2.8134542,0.47996265,0.61089766,0.9311665,-1.5228736,-1.6847085,0.6600005,0.78683203,-0.09336246,-2.4804044,0.49841583,-0.8410261,0.17866069,-0.9534247,-1.8605505,-0.39963758,-0.9440079,1.4167211,-0.047113698,-2.9714348,1.2811049,-0.912352,-0.75959045,-0.2969434,-1.5099928,0.49018085,0.40454584,-1.9307472,-1.959619,0.94307005,0.782207,2.1375742,-0.0068366244,-1.1345936,0.15723202,-2.127074,1.9868133,-2.7015653,0.46021268,1.4444107,-0.39237148,-0.12250174,0.45371777,-0.04299786,-1.0461107,1.1707951,1.3782302,0.7492831,1.2344687,-2.1434824,0.9963986,0.32354006,-0.1608508,-0.73134404,-1.6478277,-0.5413973,-1.4371672,-0.37003174,1.9592059,-1.5800368,-0.056599915,-1.5858415,0.50474674
attn_0_0_outputs,17,-2.7004108,0.29338294,-1.6780808,-0.6363209,-2.048903,2.226437,1.0062788,-2.106652,-0.032846104,1.7882127,-1.5812066,-1.3551284,1.0397555,1.1246864,-1.8888599,-0.6889068,0.6936587,-1.7656372,0.19773583,0.7344838,-1.0947536,1.790986,1.0251933,0.4978759,-0.6509322,-1.167702,-2.6286366,-2.3466465,-2.5251997,0.9313175,-3.0664659,1.1207141,-0.28387663,-0.38476756,-0.21007182,0.34732437,-0.55713147,-1.2466956,1.487882,0.81619567,-1.1188766,0.084514536,-1.9285592,1.4979835,0.9590401,0.13400386,0.4711473,0.6984705,0.07457858,-1.1325421,1.6070311,-0.023267666,-3.0067651,1.8670313,0.5592719,0.808993,-2.9093547,-1.8790082,0.35005227,-1.1100322,0.9719931,0.7629283,-1.4173754,-0.28317785,0.27764168,-1.8336505,0.45791483,0.64645845,-0.07731204,-0.22693203,-0.5840568,1.7842847,-0.48628062,1.2953658,-0.34639245,1.0200932,0.35319147,-0.7571776,-1.6267253,1.209151,-0.50447106,0.9751747,-1.874154,1.2383301,0.7784909,-1.2591842,1.4665976,-2.8007908,-0.74303293,1.0159647,1.0527748,0.21216358,-1.1578237,-1.6738647,-0.2644603,-1.6004776,-0.4016556,-0.68129265,0.70064205
attn_0_0_outputs,18,-0.91004026,-0.18400447,-1.9829384,0.7764074,-1.1719829,-0.7082115,-0.3096182,1.1282427,-1.5860528,1.771103,2.4166028,-0.2901106,-0.38730738,-0.126904,-0.5653357,0.12894696,-1.924401,-2.5150888,-0.3921795,3.2604883,0.9055211,-2.2395475,-1.0436274,1.4277918,-2.4843483,-2.9473686,-1.4836631,1.14168,-0.2758065,1.3077726,-0.67275655,-0.222886,-1.0362262,-4.009567,-7.1796618,-1.5475086,-1.038142,-0.76453704,0.5769,1.2391841,-1.1284572,-0.8482276,0.30656096,-3.1312556,-1.216256,-1.5845317,1.0341346,-0.7821509,-1.4852836,1.9102533,-0.76935405,-1.8809023,-2.9179409,-0.52884364,-1.0407114,-0.74955356,1.0187057,-0.77533686,1.4353014,3.0625706,0.6078873,0.3207052,-1.6640306,-0.4323619,-1.9400672,-0.08680361,1.805948,0.37989822,-0.16590849,0.27745947,-1.8420553,-0.49654207,-1.0113986,0.24451248,0.41385746,1.4232645,-1.5422122,-2.099045,-1.2633866,0.39213562,-0.663796,-0.3251574,-1.4152213,0.531666,1.1475518,0.24889137,0.9472182,2.806314,-0.8402203,-0.027201554,-2.0640614,-1.2752681,-1.0528885,1.3120667,0.38771892,0.47682816,0.9725695,0.05331779,0.2766903
attn_0_0_outputs,19,-1.6506541,0.42136198,1.2398167,1.2051629,0.9909985,0.6632437,0.26254845,-0.60228753,-1.5481428,1.7081746,-0.60528773,2.3450556,0.8478929,-1.4772278,-0.946476,-0.5600091,-0.3726081,-0.47414023,0.063708216,-0.7193954,0.15465274,0.8536806,0.13556033,0.21311483,-0.9501974,-1.710215,-1.228798,-0.55697984,0.9719618,-1.784902,-1.1799073,-1.8560704,-0.23292646,-3.1799018,2.160902,-1.4880744,1.4986798,0.7982895,-1.0253578,-0.11400273,1.0813001,-1.1594942,-1.3570724,-4.743577,-1.3711197,-1.053186,0.57274115,0.29086024,-1.015815,1.605094,-1.5944142,1.2299908,-1.5895939,-2.8936207,-1.8059485,0.41971302,-0.06711585,-0.8265849,-2.5742447,1.4986515,1.1848843,0.3738645,-0.95717657,-2.8525102,-0.7636922,0.0035913994,-0.902643,0.52731884,1.193709,1.3127297,-0.9371294,-2.5177653,-4.2139273,-0.35699105,-0.5087231,0.58816916,1.9194347,-3.3548005,1.7443315,0.5254455,-1.1249741,-0.8660265,0.78371036,-0.23131189,-0.17821048,0.012170658,-2.2697875,-3.5046418,0.18065706,-1.6101248,-2.7926948,-1.755122,0.5842461,0.062511556,-0.34329382,-0.5900591,-0.72721905,0.4577163,0.8203047
attn_0_0_outputs,2,0.19219504,-2.29457,0.29099372,0.8728164,0.009001579,-1.1231394,1.8052171,-0.98477894,0.17505631,-2.1047451,-1.7581728,-0.97666484,2.7535279,-0.48400098,-0.48686984,-1.5459625,-0.37472197,-0.56709194,-3.1784744,0.059227,0.99576163,-1.2950331,-1.706328,-0.4709338,0.7806135,2.73035,0.77898216,-2.3370826,0.20517388,-0.23457822,0.062437218,0.5183422,0.3296222,-2.4676864,0.713894,-0.48293144,0.9305599,0.5638261,-0.5504442,0.046551105,-0.49575073,-2.023949,0.023025542,-2.9348965,0.37191176,0.061564934,-2.3617625,-0.67819196,-2.169936,-2.1817672,-0.33323088,1.5795518,-1.9516743,-2.2251174,-2.8946013,-1.3084768,0.55998164,-3.6717327,0.07605254,-1.1273148,-2.5036414,-0.5665315,-0.41882026,1.5061077,-2.3166745,1.4234564,-0.3714963,-0.08700703,0.25611147,0.31771603,1.5890541,-0.8642594,-0.78003526,2.3792858,-1.1988668,0.9002623,-0.3796458,-0.26291385,0.7851789,-3.4401143,-0.8228307,-2.3015962,-1.6741486,0.79452145,-1.4184289,-1.4068614,1.5347996,-1.2258769,0.1259933,0.020151613,-0.7374849,0.15363859,-1.8029983,-2.6855214,-1.4473054,-1.4027262,2.1258895,-2.8022294,0.66739345
attn_0_0_outputs,20,1.4832178,-0.33562407,1.3180265,-0.6447031,-2.3610122,1.2088022,-1.8538793,0.271845,-1.8102793,-0.48825607,-0.8103023,0.7474163,-0.58624965,2.0380116,-0.07595925,-1.5183706,0.39542493,1.7010235,-1.9226426,-0.032103993,-0.23983087,-1.948669,0.7605961,-0.8125054,0.9110849,-0.08119331,-0.89535075,-0.054755628,1.0016067,-0.36478385,0.5432455,-0.42261228,-0.66762054,-2.076497,0.5044449,-0.33353898,1.5663363,-0.10234566,0.10172321,0.8284723,-0.3942251,0.6862825,-1.4995054,-0.3804364,-1.5473726,0.7282793,-3.4996517,-1.8145801,-1.3576406,-0.2546936,-1.6972727,-1.5849081,0.8937997,-1.0422899,-0.92809826,0.669455,-3.8396654,0.96893215,0.6053641,0.39345312,0.140173,-0.7361389,0.7589406,-0.51974547,0.17150557,0.5187523,0.17446822,0.122418545,1.4979442,0.35865736,-0.7715608,0.31405097,0.33616093,-0.30080342,-1.0841144,-5.0483375,-0.41927814,0.9181407,2.1338763,-1.8597431,0.8990441,0.9635335,-0.8184938,-1.3278651,-1.4623542,0.00836682,-0.94121873,0.876146,-6.6564183,0.08169958,-2.00198,0.53220046,-1.829383,-0.19013982,-1.1542399,-0.5130708,-0.04290804,-0.85232097,-0.07402095
attn_0_0_outputs,21,-2.3086514,-2.1427212,0.92317337,2.0815094,-1.5471455,0.8719103,0.24149932,-0.25109732,0.30808282,2.698977,-2.2715735,0.9883144,-3.6256132,0.2207314,1.8175771,-0.7906969,-1.6330518,0.40702197,0.78383297,1.4420333,0.38984084,-0.66222197,0.527946,-1.4918377,-0.9363661,0.49663854,-1.1415647,-3.195957,-1.4393994,0.25644457,-1.4427918,-0.53555304,-0.66020197,-1.1834809,-2.6691458,-3.2087662,-1.1959522,-0.7643552,-1.260221,-0.05673918,0.3100317,-1.505464,-3.1352515,0.19346012,0.70289284,0.09572904,0.35962,0.9851511,0.003780259,-0.3463368,-3.661142,1.4344773,-0.10715215,-0.89558434,-1.1886079,-0.5713932,-2.8875751,-1.5315479,0.86769795,-0.9651749,-0.6450649,0.18509454,2.7505133,1.5967635,-0.2604243,-1.9518578,-2.2283702,-0.8105438,-0.6134217,-0.3577563,1.9287685,-0.23094003,-1.2314509,-1.6616728,-0.86225826,0.031340584,0.79000515,-0.23268963,-0.29779965,-1.675665,-0.6127441,-0.17139518,0.49903244,-2.3867595,-0.2189913,-1.4820216,-0.25496274,-0.6673599,2.5038009,-2.156629,1.1228904,2.337297,-0.43345428,-0.7687168,1.3803664,-1.3784769,-2.0924737,-1.1897494,-0.105979584
attn_0_0_outputs,22,-0.40971717,0.3848865,1.6699138,0.024160534,-1.0676321,-1.3655267,-0.9363229,0.11674408,-0.12868789,-0.64696455,0.8114529,-0.2174157,-0.61797655,1.1421175,-1.6022383,0.58616865,-1.8844553,0.069603585,-1.7696788,-0.5816386,-3.0109303,1.0184858,-0.7403716,1.86438,-1.0432167,-0.42703092,0.44415048,-0.5243352,-2.0380034,-0.04314761,-1.6127781,1.2887533,-2.7405431,-0.9692417,0.115870744,-3.4300146,-0.18744497,-1.1169362,-0.040785827,0.7205705,-1.9918656,0.9734714,0.6859919,0.77249646,-0.22822364,-0.74097836,-2.242311,1.1062362,-0.8280539,-2.8535807,0.09862287,1.1045625,-1.3426529,-1.7215979,0.33513254,-1.6170954,-0.39157885,0.8499393,-0.748047,0.86573535,-0.48254368,0.1535201,0.59227335,0.048762314,-1.9419274,-1.2825966,-0.80689734,0.2582773,-0.05480485,-0.21577409,1.9983492,-1.7204858,-1.5071293,-1.5591176,0.5566883,0.9200005,2.6893272,1.7360585,-0.4475055,-1.1141316,-1.9982809,1.4192587,-2.0945792,0.57610023,-1.3147527,-1.5757716,-1.8986793,1.1270225,0.034577407,2.3184266,-0.6525732,1.1681244,0.88645864,2.1086311,0.32621422,-1.597022,0.79638517,0.277831,0.5286753
attn_0_0_outputs,23,1.4687579,0.6932001,0.18391338,-2.3980412,0.032377947,-0.5410095,0.26684207,-0.6852604,0.15051074,-1.8248099,-0.4224759,-1.1428205,0.24013956,-2.803699,0.80891633,0.44756287,1.8959597,-1.491097,0.26853016,-0.16025107,-0.39572698,1.2666624,0.10332904,0.72806484,0.009094632,0.34036404,0.9882844,-1.5255646,0.3056608,-1.1859776,-0.50305575,0.8091447,-1.7694296,-2.2830572,-1.038334,0.72837454,-0.5648745,-1.0432547,1.2228574,1.3439069,1.943493,-0.4513584,-0.39109755,-0.6556122,-0.42789543,-1.0670779,0.5365028,-0.8606115,-3.1483095,0.024559328,-0.526519,1.0950414,-3.5230477,-0.61775506,-0.2707938,0.05877779,-0.2861302,0.030870797,-4.915055,-1.0531517,0.34457222,1.4397284,0.5335154,-0.8391323,-1.1856889,-1.8936942,-1.3878767,-2.42678,-2.108694,0.25425372,-0.72309893,0.684482,-1.7922014,-1.0679779,-0.6734381,0.51600176,-0.9309414,0.6622166,-1.7132945,0.97771776,-0.20998028,-1.9119403,-2.2405043,0.42663655,0.55687565,-0.35055575,-1.3167695,0.102370284,-1.877489,0.6982886,0.5054167,-0.9174759,0.9753315,-0.35259062,-0.8178513,-0.08160144,-1.8648897,-2.1816611,0.28607926
attn_0_0_outputs,24,-0.11147652,-0.05197917,0.7118539,-1.277846,0.70255274,0.97735256,0.45486903,-0.36463997,1.9210792,-0.43112564,0.38766813,0.7432037,-0.53279537,0.1716968,1.383932,-0.2688834,-0.9313538,1.927693,-3.1415124,-1.0060483,0.1925799,-1.6915447,-1.2891899,-2.140787,-2.5648263,-0.42749003,1.7550418,-0.2900939,0.65511096,-2.0840359,-1.3764377,-0.63267237,-0.88799953,-0.75481176,-0.7908001,-2.7868474,-0.13190086,0.5438261,-2.420347,-2.1064534,-1.6276666,0.27595046,-2.4251835,-2.407453,-0.28094852,-0.19976966,1.039474,-1.3155178,-2.0062692,-0.27609804,-0.6718555,-0.15825728,-0.7788001,-0.30693766,-0.52230215,0.42528406,0.115085594,0.16176447,0.8125589,1.4356833,-2.7670896,2.7107236,-1.2515482,-0.89545965,0.8474842,0.53829813,1.0054398,-3.562056,-1.9311761,-0.44687018,-1.1780692,0.47852123,1.1590066,1.1166079,-0.35597908,0.56603354,-3.1882968,1.1271857,-3.063295,-2.161437,1.2589356,-1.9351959,-1.7153238,-2.6253867,-0.5345245,-1.4825008,-0.6127402,0.11449918,0.18852992,-0.1244193,0.512601,-1.5034372,-0.56982183,1.4603714,0.08571589,-3.6487234,0.61259305,-1.2432164,0.25042078
attn_0_0_outputs,25,0.98824584,1.841662,-1.3104756,-1.0096451,0.23801908,-3.5611362,-1.7204632,-2.218198,0.0866799,0.4549262,0.7595015,0.10139823,-1.5300262,-0.4137643,0.08487079,-1.3502557,-1.2134567,-1.9250444,2.3720226,-2.0650845,-0.5659703,-0.49898896,1.1318842,1.4449798,1.4228864,0.60147345,-0.27246842,-1.742887,-0.6494288,0.13938974,0.96566415,0.5938627,-1.0031381,1.0626171,0.95751274,1.4117273,-1.0610578,0.10606969,-0.75445116,-1.1484196,-1.0379874,-5.821914,0.28038958,-0.004038563,-0.564059,1.333121,-1.1059477,-1.4746937,1.1824604,-1.2677916,0.74823487,0.5518471,2.7952936,-1.4044302,-1.9060941,-2.1802545,-1.4792851,-2.4992397,0.2711276,-0.8435903,0.6510165,-1.5512682,-1.2171263,2.2869756,-0.34252426,-0.70478964,-0.4107013,-2.1263778,-2.9478638,-1.4382967,1.5970821,-1.2516799,2.0207024,-0.7010944,0.22851636,1.4763994,-1.7071275,-0.83702576,0.8337298,0.2907031,-0.89177996,-3.5177274,-0.48703888,-0.96742266,2.9657052,-1.1050152,0.418338,-2.245309,0.025333596,0.00959198,-0.7505624,-0.6708796,-1.4923631,-1.8632326,-0.73016953,-1.6958472,0.7631824,1.3218887,-0.1902322
attn_0_0_outputs,26,-0.593126,-1.9580971,0.9751805,0.09134599,0.6331747,-0.21399553,-1.0078967,-0.38894528,-0.25175172,-0.8449037,2.8697562,-1.3644744,-0.11557641,-2.744874,-1.2604967,-1.362518,-3.6761389,1.5112014,-3.1927474,2.6098073,-1.7840035,0.6272267,-0.5075511,-1.2687424,-4.4140587,-0.32723215,-1.7794383,0.99199575,-0.14861612,-1.3006797,2.1258423,0.8166727,-0.24514927,1.9853181,0.7478452,-0.34080783,1.5833424,-0.8173397,1.4515783,-1.5651019,-0.8921408,1.2198857,-0.41765457,0.35238403,0.22373618,0.372203,0.6851959,-1.7886857,-0.20782773,0.16623695,0.28438205,2.8230386,-2.1826203,-0.20946772,1.8287408,0.054565627,-2.917377,0.02740751,0.2812628,-2.1402297,-1.922489,0.4824826,-1.8369871,0.40235358,-0.45792294,0.016381513,-2.02339,0.27928635,-0.5670282,0.115340576,1.1587281,-0.44849396,0.5871665,-2.700259,0.688131,0.80912954,0.6083229,0.21325706,-1.4032634,0.07265155,1.6851007,1.4856198,1.0870187,-0.7064756,0.1347402,-1.5309303,-1.5793768,0.642753,-2.0105088,-3.918793,-0.5961784,-1.9655125,-3.1975155,1.8389221,0.55648255,-1.6723901,0.6579125,-2.6441884,-0.051183164
attn_0_0_outputs,27,1.0526139,-0.42801937,-1.6281663,1.4754459,-0.11403927,-1.6803652,-1.7118082,1.9129905,-0.8939097,0.90867555,-2.3877826,0.019801034,-0.7163888,0.3907618,-1.135207,-1.1336952,1.9686073,-1.1391675,-3.4038558,0.28027534,2.525519,1.1949826,-0.17139749,-2.4606636,1.4632031,-1.4842582,-2.760655,-1.836463,1.3030953,-1.3678112,1.3920811,-0.7427487,2.753318,-2.3361886,-0.5694707,1.2582824,0.5157188,-1.5998067,-0.3962665,-1.9835225,-1.7943901,0.018728277,0.8824785,1.4008021,-0.584297,-1.1788261,0.02268955,-0.09616283,-0.72227263,-0.74670154,0.8739741,-0.17610848,1.1103903,-0.079897515,0.0014975908,-2.404184,-0.093103476,-0.043611318,-1.3234553,-1.649708,-0.12187546,-1.7589412,0.37793297,-0.53569525,0.2981137,1.0784553,-1.1577566,-2.0849354,-0.56478673,-0.34302828,-4.4690704,0.34461936,-0.26595992,-1.2204369,-0.25526327,0.65443474,0.093906656,-1.1299351,0.5741025,0.25423554,2.1222053,-2.6452074,-2.4084425,-2.2532802,-0.058148604,0.41530314,-0.81026244,-1.5303622,-1.4617733,0.82148725,0.61320794,-0.43309376,-3.448206,0.72828555,1.6518011,0.031979516,0.9655852,-0.95469826,-0.30578357
attn_0_0_outputs,28,-2.5443156,-3.6523438,0.55076736,-2.097282,-0.7753731,0.08460705,-1.3675686,-0.7983544,0.79554147,1.1386418,0.70093775,0.49977905,-0.3332083,-2.759503,0.59768796,-2.9178362,-0.78683466,-0.2489176,-1.7758895,-0.30149198,-0.9940465,1.9093629,-2.2947028,-0.8944345,0.03397074,-1.1505234,-1.7786123,-3.544214,-0.45333874,-0.6825715,-1.4220845,0.28286326,-0.5119946,-0.5746671,-0.002299194,-1.677939,-0.0034719973,-0.4475175,0.076444976,1.2988653,0.9795585,-2.2249477,-1.2592038,0.09473324,0.2276562,-1.9338379,-3.870615,1.8056914,-0.774257,-1.6404501,-0.11348703,-2.904054,0.3172748,-0.579365,-1.4563577,0.0723909,0.37172723,0.53143835,-0.25264737,-3.0556824,-2.250386,-0.27978268,-1.3567038,0.6314334,1.0167699,-2.874144,-0.5827998,-1.6161615,-3.3666797,0.66207844,-2.2700837,2.1516843,-0.36635643,0.10754105,-1.2598455,-1.5976634,0.124323174,0.96854293,1.1060208,1.8621385,-0.011768491,0.611578,0.6356457,-1.1778322,1.9895756,-0.40584776,-2.1367228,1.1516992,-0.035457913,0.9650288,0.9370417,1.219867,0.21956864,-0.80840874,-1.661936,-2.1627617,0.26204857,0.3027988,0.87798303
attn_0_0_outputs,29,-1.3657688,-1.5374168,-0.74692094,0.116783924,0.2517953,-1.161121,-1.9272312,0.09247071,1.2386043,-1.5002757,-2.5960357,1.7985622,0.17770186,-0.090918295,1.8522447,0.37758,-0.49572513,2.0740063,1.5752815,-0.05674477,1.1183503,-0.6629274,1.508061,-2.2341592,2.865668,-1.1783679,-0.2385341,-2.43055,-0.7272435,-0.830894,-2.343088,-0.7063888,-0.39945573,-0.38594878,-0.5843156,-1.062056,-1.0055984,0.8236043,0.9511932,0.83684355,-0.2387329,0.3029619,-0.102228664,0.38946998,-1.8560108,-0.25313112,-2.4684196,0.07971959,-1.6189733,1.373306,-0.5739352,1.008405,1.2700765,-1.7582657,1.3494698,-0.38370186,0.061078995,-0.9565959,-1.4739314,-1.2189909,-0.89927685,-1.311447,-5.7441425,-1.0610427,-0.75125474,-1.3726629,0.3552114,-2.9396782,0.9457802,0.47510955,-0.5688281,-0.13895378,2.3895383,0.6903197,1.1576799,0.65749705,-1.3130586,1.9665366,-1.1062622,-1.5061436,-0.15536733,-0.505548,0.6649651,-4.2307596,-1.0374138,-1.890469,-1.4172939,-0.20909302,-1.1565465,-3.7463129,0.85320693,-4.3602395,-1.1040262,0.46529168,1.6607254,-2.2442825,-0.6831077,-1.3840544,0.6649312
attn_0_0_outputs,3,1.2904657,-3.4303906,-0.05338989,-1.6805218,0.93110573,0.51633215,-0.5899206,1.0956509,-3.4702153,-0.12528715,-2.0948634,-1.2967052,-0.7044822,0.59844446,-0.92519337,-0.49290466,-5.1098647,-0.86642414,1.7321733,0.14667198,-0.59361607,-0.18147469,1.0439274,2.3420842,-0.7583282,-1.7515968,-1.5110906,0.56843776,2.233893,-0.9000703,1.5679336,-0.776463,0.57232857,-2.4299183,0.7792096,0.5173619,-0.67991996,1.3062916,-0.7794075,1.5773041,0.22519787,-2.6995535,-1.1809044,-2.1793277,0.9306613,-1.6863898,1.5072843,1.7261658,0.60716665,-0.09436816,-2.8998542,-1.2511883,0.56510174,2.2993639,0.6587294,-2.700674,-0.046617888,0.14406475,1.2120357,0.03699978,0.04032754,0.4837019,0.13542633,-1.0041375,-0.36856994,-0.1706783,1.462812,-2.871646,0.5870701,-0.70472926,-0.7217248,-1.0356767,-0.91367495,-0.69212395,-2.4304192,-0.22921795,-1.3385113,-0.78586024,1.0829955,0.8600674,1.6277504,0.21907566,-0.3627124,-3.2095034,-0.71687734,-5.638064,0.57996505,1.1951752,-1.0550535,0.051114023,-3.0018978,-0.3543897,-1.2152221,-3.9203932,0.10768282,-1.7389357,-2.1559691,0.12766387,-0.27991453
attn_0_0_outputs,30,-0.9086287,0.19955513,-1.5269266,-2.5485573,-0.9455311,0.55196446,0.62121886,-2.1078963,-0.42551714,0.10930712,-0.28214478,-2.648287,-2.118767,-3.5962386,2.2993388,0.8508137,0.99295783,-2.0978014,1.9665121,0.47660595,-0.2623828,-0.5749483,-2.5480528,-0.9263095,2.718446,-0.7367873,-0.9384071,2.5525877,-2.4760964,0.8794364,-0.59222406,0.80562145,-0.8424242,-1.2461355,-2.243964,-1.4489295,1.9207013,0.9869965,-2.4240494,-0.9654108,-2.255337,1.5555573,-0.4648514,-1.0953385,-1.4237972,-1.183887,1.0434123,0.65612775,-1.8059468,0.77966344,1.7187227,-1.5309602,3.1180217,-0.62477505,-1.0087632,3.4285126,-2.11517,-1.2992579,2.2482462,-0.89428306,0.44717115,-1.2513529,-0.3078291,1.2185146,-0.3422768,0.62943196,-1.2217108,0.31393617,-0.323012,-0.03304976,-3.0194476,-0.7755828,0.438506,-2.0203018,-1.0446522,1.4765266,-0.7486,-0.9901221,-0.7066946,-0.48276997,-0.6377773,-2.9226425,-1.7039677,-0.71428466,-0.9546372,-0.7265959,0.2824718,-1.3567288,-0.35621226,-0.8258388,-1.0430179,-1.0484309,-0.4866701,0.23832573,-1.4027253,-0.21860148,-0.22135785,-0.41933548,0.24673189
attn_0_0_outputs,31,-1.2518034,-3.0989459,-1.7493442,-2.4363225,-0.4592848,-1.6214118,1.0407596,-0.083831675,1.9558798,1.2923049,-3.4825037,0.08820392,-0.5415776,1.6826851,0.7087955,1.137316,0.8901128,0.1633111,0.99796087,-1.3210822,-1.3662149,0.15407501,2.2742293,-2.069128,-0.7978889,2.313313,-0.6829216,-6.3819885,-0.9665279,-0.4063828,-0.31435242,0.75758445,0.77062315,0.94055647,-1.9995449,0.66967523,-0.7415197,-1.2607673,0.6720305,0.5069361,-0.32765302,0.98725355,0.6156958,-1.2507688,-1.9673146,1.179857,-0.6609726,0.10629819,1.4072529,-0.51194125,-1.3328747,-0.2915869,-0.11002371,-2.8930185,-0.967778,0.013563681,2.199091,-0.8950977,-0.7171761,-0.8499453,-1.8533833,-0.6538479,-2.4048433,2.416284,1.6159015,-1.4106758,-0.7172387,-0.79773253,0.59062296,-1.2371095,-4.6641955,-0.56666523,-3.7394893,0.6118979,0.22469136,-2.0975096,-1.1214231,-0.9861135,2.5857046,-0.9658723,-1.3677651,-1.6072224,1.2082033,-0.21311377,-1.0953026,1.5335672,-2.191328,-0.27313846,-1.5754604,0.3116077,1.216481,-1.9215969,-2.5328712,0.8243234,-0.298304,-0.7484957,-0.8088764,0.14845802,0.3909753
attn_0_0_outputs,32,-0.2905653,-0.67478466,-0.489114,0.10028336,-0.81501186,-6.7149215,0.84005475,-1.7171655,1.0221694,2.2470467,0.89901286,2.196904,1.4753722,0.06674102,-0.34034878,-0.9416916,-0.25603554,-0.18636335,-0.49157465,-0.5697265,0.7706302,-0.120463416,-1.8282397,-0.82877,0.7199127,-2.5478232,1.9859567,-1.1947955,1.3508433,-4.6320896,-2.8284533,0.18871114,0.71538275,0.07662686,-0.046902675,-1.9809017,-2.6497116,-6.021222,0.81509477,-1.1574502,0.9358666,0.33210805,0.93272716,0.5920736,0.74433047,-0.7566686,-0.87421143,-2.489636,-0.3920615,-2.6253796,-0.9151049,-0.8122152,-2.7845545,0.21008913,0.23402257,1.2196978,0.49990255,0.5603367,-2.5574317,-2.3733425,0.58395463,-1.3704108,1.4707348,-1.4385982,-0.3358099,-1.4008852,-1.6005273,-1.2091216,-0.21050848,-0.87372756,-0.4447059,-0.7329455,-0.718538,0.61569446,-0.51293755,-0.13452609,0.7156588,-0.77691126,-2.3541546,-0.9142123,-0.020764997,-0.18086927,-0.7098332,-1.5262593,0.9430946,0.7144963,0.34288982,-0.025081951,0.11285858,0.21812873,1.4515388,1.2563418,0.21419404,-1.7642735,-0.25799727,-0.70675904,-0.734335,-0.061050702,0.2603602
attn_0_0_outputs,33,-1.4171438,-1.5634556,-1.2298797,0.43356395,-1.2183801,-3.3933914,-4.168017,-0.10264263,0.50678897,0.32513067,-0.18917543,-2.0939403,-4.049409,-2.7716591,0.84041697,0.24863315,-0.37625292,0.016922781,0.7874978,-1.5781792,1.1679591,-0.004741632,1.2404671,-0.4298163,-0.44227216,0.75000787,-0.8472051,1.9655443,-0.63015896,1.9833333,0.64930725,-1.3976231,-0.8851329,0.15967624,1.6946292,-3.1850593,-1.5693196,0.75438315,-1.6823931,0.8618731,1.3446395,-2.1460567,-1.2362032,-1.12772,1.140922,-1.8679903,0.5282418,-1.4568743,0.77936244,-0.8402542,-1.1088195,-0.76542056,-2.972881,0.72364306,-2.7718916,-1.3773776,1.2342457,-0.38846034,1.30456,1.1707966,0.239094,-0.047406714,-3.570123,1.496531,0.98086196,0.6551244,3.6302323,-0.9797479,-0.75062215,-0.67385674,-1.9235431,-0.5986122,-1.0578265,-0.5483046,1.8416936,-2.8132765,-1.2670069,1.5922447,0.15897106,-1.1534262,1.6354889,0.7973603,-0.5789439,0.8490973,0.7581013,-0.96545523,-0.6589085,-2.72438,-0.040990222,2.19845,-0.48333606,1.2983963,-1.4479498,0.37081316,-2.6752973,-0.5814233,-0.15716243,-0.27300733,-0.8089991
attn_0_0_outputs,34,0.5803514,0.74791527,-0.58039695,-0.09340653,-0.27477738,0.081533045,-0.7022401,-0.23798089,-1.4389896,0.74869776,1.1237384,0.5521847,1.6213193,0.204715,0.47760037,-0.11804972,1.1139311,-2.162396,-0.4971055,-0.779545,-0.027753307,-1.0727191,-1.6070096,-2.1556635,-1.9015104,0.06667376,-0.1549443,1.4660313,1.6803855,0.884901,-1.0999937,0.28011754,-1.806157,-1.6121563,0.52893996,-1.089585,-0.53833616,-4.1565013,-0.63141125,0.9398822,-1.7583166,-0.084059864,0.40963545,-0.13115124,-4.1660447,-1.2290007,0.0884374,-1.7618634,-2.0086932,-0.6274832,-2.2058244,0.30181387,1.1146985,0.93609077,0.37173954,-0.51962006,0.16043891,-1.0655049,-1.3019513,-1.2549903,0.034519613,-1.7922823,0.6678804,-0.49801782,-1.3833323,-0.38799548,-2.833791,0.18889716,0.0767437,-0.37170666,1.8837355,0.24870847,-0.3813143,0.021523112,-1.1509237,0.7235155,1.1126465,0.7157439,-1.6444703,0.7405949,-0.5692394,-1.6982137,-1.4757557,-1.5362017,0.9335134,-2.2201047,-0.54348963,-0.8822493,-1.7039706,1.8191303,-2.1220837,0.8270614,0.14509946,-2.1358776,-0.12794441,-1.2031302,-0.9517489,-0.22009398,0.80231917
attn_0_0_outputs,35,-1.6548072,0.78748643,-0.8822806,1.5739112,0.2596755,-0.93483347,-0.9874525,-1.3337243,1.8911195,-0.50482225,-0.3693189,1.6833308,0.5150402,0.09296105,-0.18308358,0.59155345,-0.99329627,-0.837796,-1.0743365,-1.5773191,-0.12215126,1.7464042,0.27919492,0.2368255,-0.29600534,2.3802671,-2.0112445,-1.2701559,-3.0862415,2.058458,0.38078946,0.024653694,-0.4474439,0.7871609,0.5814893,0.94330287,-1.2967052,-0.64324033,-3.4946074,0.6258228,-0.26345375,-0.4056347,-1.2434646,0.53192705,-1.490313,-2.397737,0.2354088,0.1906451,-0.093230255,-2.2044811,-1.1289033,-1.4724265,-1.0764328,-2.2628057,-0.8521245,-0.19155334,-0.9606692,0.15097706,1.8992274,-0.87327945,0.811785,-0.040811036,0.45127854,-1.2569818,-1.8733054,-0.49633497,-3.6368887,-2.9766085,3.0493062,-0.32289955,-2.1840334,1.6179284,1.5638494,-0.7178708,0.95486426,-3.3659246,1.0209405,-5.17714,-1.2373892,-0.38933697,0.027422309,-0.5035932,0.851434,0.37804312,-1.6357878,0.09515226,-0.484896,1.1339121,0.22047901,-0.9716447,0.4807628,-2.16964,0.35880178,-2.2073975,1.4613357,1.3305516,-1.7203176,-0.4540795,0.24443957
attn_0_0_outputs,36,-1.7999883,-1.5786748,-0.38928393,-0.3734156,-0.21117571,0.8857245,-1.3934578,0.057059936,0.18562001,-1.265988,-5.24574,-1.0335978,-1.3594733,0.5427349,-1.7603942,-1.1878742,-0.8154443,-1.4714643,0.6003185,0.109035105,1.3845663,-0.21046503,0.559573,-1.0779364,-1.1483183,-1.0679845,-2.6605644,0.8734668,-2.9408898,-3.5555444,2.0754693,1.5844064,-0.22591811,2.0724738,0.5332811,-3.215687,0.54908603,-0.61360085,-3.1559308,-0.26021382,-1.7025497,0.20624778,0.5079521,-0.4616395,-0.512732,-0.7596612,-0.24316204,-1.542657,0.6887621,-1.8873655,1.19085,-0.59831166,-3.615281,0.1093148,2.3053207,-1.4696484,1.1552898,-0.046362452,0.61843073,-0.59970486,0.550359,0.38648975,1.6220783,-0.6260266,0.08870506,-1.3962362,-0.03608196,-0.8355005,-0.15856066,-0.54752934,-0.34846398,-0.13894564,-0.5388011,-0.99108815,-0.06700344,0.11094547,-1.7991898,0.92891586,-0.05369901,-0.77167875,0.64693046,0.98064095,-2.1497803,-0.24234049,-0.2408253,1.1980042,-2.438557,-1.0901142,0.3561058,0.49130258,-1.4388347,0.3933035,0.005766786,-0.22498977,-1.893275,-2.1643267,-0.39752308,2.4792156,0.124606304
attn_0_0_outputs,37,1.7333834,0.22764453,-1.9834421,0.20124838,-0.5541615,-0.8293429,0.19001175,-5.261087,-0.906017,0.85010666,-1.0556712,-1.1922498,0.27263623,-1.7012084,-2.0152109,0.54818356,1.040142,-2.0167263,0.9030786,-0.34642035,0.062674426,-1.9739653,0.6599977,-0.5780077,0.99581474,-1.1444559,0.99935323,-2.6599035,-3.1233716,-0.50651526,-1.7039376,1.0061723,2.2955992,0.9905641,1.1642346,0.4919299,0.9280709,-0.3982108,-0.82396066,0.7471097,-0.92047364,-1.5009961,-3.1206,-1.1437917,-1.1684854,1.9674747,-0.2180473,-0.97841287,-1.4853268,-1.6500174,-1.6695745,-1.2134423,-1.1039916,0.86405414,2.4683504,0.41917297,-0.60037106,0.13416094,1.5163867,-0.20293012,-0.19597039,0.6609115,-0.5823732,-2.9994464,-1.0743088,-0.48859027,-0.14474699,0.82469594,-0.35356867,0.41059873,1.6393743,-0.1251943,0.1882415,-2.4098692,0.15864027,-0.87284976,0.37036708,0.49961498,0.6415315,-0.25260964,-2.1918147,1.6220398,-4.4820137,-0.31686297,-1.1443185,-0.24421248,0.28579623,-0.5784717,-1.015049,-1.5566016,0.4833162,-1.4609442,-0.079128504,1.1182574,-2.4764402,0.2636228,0.42618915,-1.4205455,-0.2084047
attn_0_0_outputs,38,0.9772924,1.0670106,-1.6047437,1.1142782,1.237027,-2.195784,-0.58982384,1.2303259,0.40057784,-1.2670037,-0.6281944,-1.1894636,-0.9873835,1.017564,1.1133761,-1.7490321,1.5872252,-1.8873338,-1.1930591,-2.1218982,-4.0591707,-1.0684747,0.47275203,0.015170981,-1.3011712,-0.13660909,0.15387766,0.4089492,1.290609,0.09150443,2.717387,-1.867015,2.230479,-2.1023917,0.4615604,2.836114,0.08797578,-0.1589142,0.41688842,1.4059477,1.0669627,-0.47972235,-1.3428949,-0.08095105,-1.1275795,0.93068415,-0.9460121,0.66415673,1.8243685,0.1638059,-0.6731324,-0.22505076,0.12211087,-0.27312043,0.79304415,-2.3860178,-1.8860815,0.3146098,-3.4838293,-1.8003607,-0.98890394,0.0970633,1.0085493,0.16317065,-0.02337782,-0.183906,0.02137651,-2.4574833,-2.2519948,-0.061988298,-1.5399584,-0.8773732,-1.2033353,-1.0750228,-1.1005787,-0.8615992,0.023446275,1.2939733,-0.4064076,-0.54250705,-3.0828001,-1.2429106,0.3236871,-0.052015267,-3.0748136,0.10246792,-1.1483617,0.65181756,-1.485812,-1.4958788,-0.7129546,-0.93052214,-0.9892027,0.4298018,-1.0517477,-3.3817244,-0.13683002,-0.8979903,0.35820663
attn_0_0_outputs,39,-3.37324,-2.1776395,-0.793972,-1.1249161,1.2246362,-5.5747294,-0.48586258,0.8076544,0.6788282,-2.2237163,0.46765155,0.1397931,-0.76171786,-1.0766592,-1.7098603,0.9746017,-1.603202,-1.1629621,0.34483984,-0.4967268,-1.1699195,-1.3327045,0.9369404,1.1280481,-0.36411497,-1.7207246,-1.1032995,-3.6259234,-0.39242435,1.2193669,-1.2276622,-1.4800097,-0.119716704,2.795955,-1.1224841,-0.05728636,-1.069028,0.40515012,-0.28231028,2.301404,0.87697494,2.6680336,-0.4047871,0.61741185,-1.7584364,-1.0220746,-2.247181,2.0807567,-3.739405,0.1065008,-0.7828942,1.2820549,2.1157408,1.737781,-0.46080545,0.8247313,-2.7688859,0.29065722,-0.6276727,-0.3553396,0.3219556,1.5576063,0.053797994,2.3276088,-0.9487158,-1.164816,-0.71820843,-3.2743664,-0.1914943,-0.6232148,-0.89039683,0.4676397,1.1996049,1.0058391,-1.1230639,1.7940103,-0.6792069,-1.2883754,0.6601157,-0.13693993,-4.8294935,2.39156,-0.5959799,-1.0832916,-4.897422,-1.0869178,1.3187433,-0.18392286,-1.2511903,-1.5853425,-3.9341516,0.38550675,-2.3715923,-0.8309665,-0.2691227,1.8824695,-1.336008,-0.4008547,-0.30037954
attn_0_0_outputs,4,0.5894921,0.81896883,-0.23581329,-1.1123744,-0.6501973,2.2105243,-0.9581985,0.43793088,1.4921188,1.0378954,-0.13449916,-0.104212,-1.1568532,0.906308,-0.76011854,-0.32067847,0.278066,0.1970951,-3.5115573,1.0389782,-1.853825,-1.2029841,-1.0024323,0.3698458,0.10076409,-1.3045486,-0.48742118,1.0726649,0.14149444,0.55157894,-1.0244994,-4.833261,-0.39935157,0.8749717,2.1486845,-1.4703646,0.7204178,1.509514,-0.27250382,1.7684089,1.0342182,0.038911387,0.39869034,-3.3546512,-0.85515344,-0.86356586,-0.14367558,0.7339534,-0.98722583,0.7423011,-1.2272756,-0.39754194,-0.37908703,-2.5043766,-2.3645575,-0.111863546,-0.8418048,-2.9932184,-1.4396322,-0.17036824,0.4997774,0.16545367,-0.7598257,-2.398379,0.12533551,-2.2255237,-0.50270134,3.9300947,-1.019308,0.26397642,-0.8212249,0.056193497,-2.7219646,-0.5003396,-1.5396856,-0.61332864,-0.92050344,0.40892196,1.062859,-1.2295492,0.49017146,-0.017231066,-3.2560735,0.5910544,-2.2231705,-0.9231402,1.6882683,-2.830036,1.7014383,0.6618058,0.9238924,-1.0028206,-4.3213296,-1.6889695,-0.59763,2.3075733,0.25538778,-0.30327412,-0.004451212
attn_0_0_outputs,40,0.9044178,-0.018384745,0.6710545,-4.599383,0.70406365,0.8796426,-1.1903404,-2.2391238,1.0128338,-1.3567063,-1.0567338,-1.1258442,1.0960921,-1.5898979,0.022992201,0.49164426,-1.792141,1.2725105,-0.036658708,1.4700562,1.0460721,1.4427738,-2.5227385,-0.4708701,0.417783,-0.71419793,0.3705694,-2.3386583,-0.8597395,0.86713076,0.5096037,1.95617,-3.3521795,-0.17322823,-1.0796702,2.3545463,-1.9101998,0.15361202,-0.049350664,-0.4113472,-0.93369186,-0.21313414,-1.3113583,-1.6338013,-0.52416664,-0.34934092,-0.29286316,-0.101559,-0.5657962,0.6781679,-1.1341634,0.23550364,-0.51527345,-0.5360179,-0.23355366,0.4133116,-2.561758,-1.2883484,-0.5645476,-1.1707875,-3.3376412,0.6840778,1.0404403,0.7921609,0.97973955,-0.81186455,-0.5421773,-1.7350484,1.1628051,-1.6558877,0.25194246,1.2112409,0.9844376,-1.299231,-0.47776887,-0.6800554,-2.0319912,-2.8391893,-1.0520332,-2.9572177,-0.3272119,-0.13074088,1.8591088,-1.0173123,-0.06375869,-3.2740934,0.59661555,-1.8538677,-0.11846923,-1.8972206,-2.8083215,0.6529785,0.9475971,-2.877843,-0.80551547,0.612506,-1.2893538,0.3315125,0.5148354
attn_0_0_outputs,41,-0.22551109,0.8928675,-2.4783134,-0.29255617,-0.585434,1.5243723,0.11010891,-3.7894483,-2.983681,1.1415231,1.1308986,-2.369241,0.47393504,0.6639122,-0.9390215,1.9280646,-1.8519719,0.25952414,-1.4829135,-0.8493676,0.5553435,1.6229858,0.5331661,-1.976911,-2.0535662,-0.7966271,0.84390515,-0.37441224,0.7007304,0.7319044,-1.0256598,0.17747639,-1.1059954,-1.3448129,-0.13594884,1.2391725,1.6837714,1.0299578,-0.3953425,-3.3333251,-0.35242808,-3.514465,-2.7661896,0.57690597,-2.5500565,0.22801955,-0.12104736,-0.103913166,-4.2231274,-2.6845417,-0.15252316,1.6430103,-3.6018214,-0.36638376,0.60009867,-2.2931137,0.5886081,-3.533302,2.7264051,-3.1802232,-0.15659796,2.0398269,-0.5971302,0.34529394,0.37021643,-0.31188256,1.3665813,-0.7222376,3.2250023,-2.0909898,0.28669792,0.4740958,1.0311669,1.6344246,-0.1673638,0.11552064,-1.0392367,-2.8998823,-0.76956564,-1.3699878,-3.6296487,-1.3886892,-1.1355996,0.7539666,0.38131332,-0.7041498,2.066701,-2.2310092,-2.9774141,2.3949385,0.16727805,-0.47030565,2.1359732,-0.8200373,-0.22549373,1.3212973,-1.8848821,-1.723706,-0.050556816
attn_0_0_outputs,42,-2.7579782,0.26246715,2.6282532,-0.21293183,-0.20709547,0.3221257,2.5268972,-1.6037081,1.821469,-0.25249246,-1.1575607,0.6018469,-0.58333516,-2.0944908,-2.163794,-0.61839414,1.3295352,-0.01859343,1.3591324,1.5526105,0.29847118,0.047710598,0.22922614,-0.2572826,-1.6640439,0.11795769,-1.5988165,-0.5966812,-0.18966892,-0.4483194,0.2974174,0.29017213,-2.3810873,-0.12544808,2.597067,0.56114596,0.6457301,1.6807017,-1.8162928,0.4661377,-0.91515136,0.0687223,-3.4051838,0.59609723,-3.0897362,0.6352342,-1.089775,-2.431159,-3.5224907,-2.0680368,-0.46626014,-0.045262642,1.0578434,0.031448755,0.30363777,-1.8406719,0.86545223,1.6888249,1.3838724,-2.7695515,-0.5098683,-1.4473025,0.6624513,-0.6780825,-1.8889369,0.029343102,-1.6943954,0.38090372,-1.0274042,-0.5015225,-2.4046419,-0.6593497,0.1419054,0.38250315,1.0793707,-2.1976755,-1.0531054,0.72843486,-0.20036997,-2.9291518,-1.138409,-1.2525922,-1.7332584,-1.3401104,-0.76788026,-0.40815,-0.63839847,0.13453265,0.613048,-2.6400256,1.4137685,-0.08170455,-2.3199673,-0.86538416,0.94246024,1.4688947,-2.8472714,-0.29765388,0.77530414
attn_0_0_outputs,43,-0.65885216,-0.7705564,-1.822394,-1.3873705,-0.33296773,-2.0935903,-0.101052225,-0.5403582,0.4203403,-2.1808274,1.4226289,0.37067983,1.8416696,-2.751823,-1.8736693,0.033994578,-0.65979165,-1.7061498,-0.7768061,2.1078963,-2.9000065,1.3790286,-0.87613004,0.56872135,0.37370172,-1.9051917,-2.0068946,-1.1429348,-2.0098596,0.63589257,-0.90223205,-1.4110041,0.39882058,-0.13025783,1.6108025,0.036016546,-3.467599,0.28869644,1.4731945,-1.6749853,-0.5176469,1.5933287,-2.2498565,-1.0196947,0.20859912,-0.10391952,-1.7130269,-0.05095796,-0.9287931,-1.576932,-0.5571238,-1.8152385,0.35405636,-2.1466823,-1.8732437,-1.178291,0.8963714,1.6009811,-2.4398322,-0.93866515,-1.311533,-1.2644802,2.0707366,0.26032364,-1.2029732,1.1858907,1.9252853,-4.23916,-0.2828914,-1.6130307,-0.07499476,-1.3704284,0.7106934,-4.5339203,1.6437966,-1.0061148,-1.2347044,1.9475794,1.0031643,2.0690773,-0.053843666,0.9661721,-0.8105858,0.57512677,-2.3548756,0.257661,-1.3454735,0.10580918,-0.52725357,1.5207604,0.6452554,-0.48360386,0.06701063,1.8225851,1.7527027,-0.6699993,-2.204994,-0.8167583,-1.2079685
attn_0_0_outputs,44,-0.75697786,-0.6555549,-1.3034865,0.35760865,0.07021189,-2.4416168,-0.04292228,-0.10381521,0.38912338,1.3194745,-1.43208,1.5063082,0.8866251,0.25343165,0.9692253,-1.4209902,-1.1225755,-1.4249636,-0.14347306,-1.1575938,0.057742033,0.42853492,-1.2020097,-2.0689237,0.33099002,0.41958618,0.087417156,-3.5076976,0.84414184,0.34416503,0.034549404,-0.7384788,-2.4886115,-1.8818802,0.5860868,-0.83260554,0.78953356,-0.34525105,1.1819471,1.460088,-2.516262,1.843582,-0.41974643,0.011276892,0.23240955,-0.99353224,-0.8647274,0.16129172,1.1372994,3.0436873,1.0689697,0.2928268,-0.56664586,-1.4662853,1.6591729,0.4412505,-3.6880643,-1.082186,-1.0397198,0.062574394,0.039787926,-1.2644997,-1.0529686,0.4005661,0.0957397,-2.120268,-2.1723125,-1.5560421,-0.5080155,0.6413276,0.60315883,0.28805563,-0.73453975,-0.05182266,-0.53087753,-0.14980066,-1.2215581,-3.471975,-2.1240766,-0.978652,-0.2764309,0.9770155,0.13488023,0.6483573,-0.1457052,1.6885437,0.5111409,-0.56046987,-0.11282077,-0.15568897,-0.5002791,0.7308821,-0.2022711,0.9836024,0.8090343,0.357534,-5.6377225,-0.5609801,0.4367822
attn_0_0_outputs,45,-0.644705,-1.3515491,0.6517444,-0.9571153,-0.21250357,0.67453337,-1.3602449,-0.6669018,-3.3149679,-0.140098,-2.1935387,-3.1557407,-1.0413523,-0.33527532,-0.2710262,-0.62015593,0.66548216,-1.4561602,0.30223754,2.2289662,0.31076515,-2.5109212,-0.42059112,-1.8677441,-0.0019467318,-0.8895842,0.80095524,-1.5153034,0.23339517,-0.5397513,-0.76367587,-0.16968231,-3.1979573,2.6433687,-3.2055798,0.69681585,-3.506831,-0.2802455,-4.3588834,-2.85193,1.9070482,0.89996094,-2.8981874,-0.5769509,-1.2412404,0.3241213,-0.504502,1.1642823,0.36996096,2.4861712,2.103519,-1.9060634,0.7865584,-2.5926547,-0.18384023,-1.5382731,-0.9015948,-0.4181256,0.31208467,-0.39263633,1.0764803,-2.4376397,-0.04222875,-0.5703984,0.6917338,0.07011608,-0.029666062,-1.5403639,1.2353133,0.35644513,-0.37352356,-0.5166734,1.0549289,-0.16874413,0.8654371,2.0355515,0.17366338,-2.50229,-2.3706558,-1.6206996,0.41365385,-2.3110127,0.23373042,-0.8259126,-0.9450151,1.2147647,-0.5680712,-3.8096433,0.14682184,0.010683815,-1.1312902,2.2775166,0.41254678,-0.23514077,-0.28946093,1.1531514,-2.401867,0.09305086,-0.49988666
attn_0_0_outputs,46,-2.9481015,0.33578035,-3.9780707,-0.82036585,-1.4782127,2.1005917,-0.27526528,0.37618113,1.8724709,0.87329423,0.68043953,0.7234434,0.6368888,0.21950775,0.5403968,-2.3811216,-0.98143417,-2.7955644,-1.7254392,-2.3086224,-1.1407244,-2.3656597,-2.4050605,-1.033155,0.08391768,-0.30198428,0.4863877,0.25099733,-0.5856702,0.28459567,-1.467122,0.3244141,0.6737566,0.46856418,-1.6627412,-0.60942245,-2.4332035,-3.3968537,0.8989697,1.0318159,1.7347941,2.3663008,0.38329506,0.76172775,1.4549401,0.43030882,-1.108708,-1.2486323,-2.3586996,-0.9343958,-0.99126464,-1.0790013,1.9397228,-2.40798,-0.057674948,-1.7454224,0.0087156715,-1.2902355,-0.4795993,-0.002241562,-2.425178,-4.2872124,0.76517457,0.91190237,0.85117483,-1.7270166,0.34322116,-1.4326853,0.84573334,0.5580666,1.0791498,-0.092302576,-0.57470924,1.576476,0.46064302,1.1276401,-0.057073757,-0.466531,-0.5581163,-1.0473665,-0.1817881,0.6263867,0.15302289,0.01857737,-1.3926791,1.0917705,-0.16328725,-1.5003028,-1.077053,1.1397173,-3.1115372,-0.11258626,0.5423058,-2.290151,-0.8834633,-0.53024703,-3.2793274,0.1305986,-0.25627822
attn_0_0_outputs,47,-1.4479359,0.38797882,-0.053429257,1.0578846,-2.5621006,-0.8747534,-2.2511294,1.0050887,-3.7514987,0.5222591,1.6395149,-1.56192,0.25338343,1.5840647,0.21835215,-1.0881544,2.3677702,-1.558136,-1.1836009,-1.0210036,-0.36081257,0.41533005,-0.8386802,-0.10530669,-1.2636918,-2.4642441,-2.6837537,-2.781506,2.2200804,-0.8372466,0.37152523,0.21964574,-1.2991072,-0.93755966,-0.75857735,-1.3272235,-0.87262785,0.029117133,0.042900704,-1.2488109,-1.8548691,0.8349701,2.3897724,-0.7243916,-2.3589761,-0.61348677,-0.29736933,-0.57030475,1.1764612,-0.49032155,-0.84640956,-0.7711281,0.84428126,1.7807852,0.3019519,-1.4735514,-0.2577231,-2.0519054,-1.2404495,-0.25100327,-0.62965494,-0.49202386,1.8608305,0.0012775646,-1.5637618,1.8573139,0.789041,-2.274773,-3.2941248,0.7415393,2.701475,0.89889735,-0.8234319,-3.2953985,1.1243495,0.16463394,-0.8956431,-2.5477118,-0.7308443,-1.9591458,-1.0462958,-1.5442817,1.0447034,-1.0772015,0.1608102,-0.6601593,0.742781,-1.3425034,-1.3053458,1.3526628,0.5954427,-0.5108133,-2.132273,1.410443,0.47155875,-4.731975,0.63825023,-2.2970958,-1.3224417
attn_0_0_outputs,48,-2.0737047,-0.6591588,0.05414006,-1.1090899,0.28422326,-1.1776752,-2.0101182,1.4933894,-1.21622,-0.491385,-1.669864,-2.2068326,-1.3514509,-0.43592563,-0.83442396,-1.9926862,-2.664721,-1.3719699,0.4673856,-1.2454358,-0.02891911,-1.2423542,0.53551596,-0.057074435,-3.1128533,0.9031448,-0.082742706,0.5013828,0.86839426,0.95662737,-0.13556808,0.4476109,-0.49322432,-1.6957971,0.4745274,-2.1315029,-0.7747782,-0.38863868,-1.1015487,-0.45432985,-3.3272116,0.7300439,-0.062318537,1.7897544,-1.2393831,0.5653588,-0.6669874,-0.80086476,1.2814852,0.79070246,0.45691338,1.8196188,-1.6996799,0.40198788,0.7041085,0.02510593,-1.146049,1.3454,-1.2135484,1.3605344,-3.210958,-0.7872415,-0.24810459,-1.2004447,1.449225,-0.81572735,-2.6491237,-0.58414054,0.5372014,0.45021603,-0.15332441,0.37433454,1.564633,-0.5095978,0.08497456,-1.5592296,0.058797497,0.610966,-0.9492306,-4.941275,-0.7853219,0.38516957,-0.8016259,1.3255411,0.5990202,-3.0925634,-0.6773239,-0.70715845,-0.5872147,-0.15465388,0.08470631,-3.227373,1.1504664,-0.42887372,0.4325914,-0.5765168,-1.2751933,0.6678955,0.34732428
attn_0_0_outputs,49,0.12684618,0.0035384058,1.9367529,-2.4455516,3.0719378,-2.1947992,-0.085397646,0.15244484,-1.9453609,-2.2332478,-0.9368549,-0.15568131,-0.4112973,-0.3943154,1.4444313,0.787706,-1.0165374,-2.0595865,1.8810319,-0.9140351,-1.0115302,0.25094688,-0.008217879,-1.184111,-0.97237897,-1.1594458,1.8811736,1.9381838,-1.1784183,0.21401788,0.84582543,-4.078263,2.066741,0.063567996,-4.3773575,-1.1609149,1.1181,-1.8649118,0.44841978,-0.31455028,0.016736036,-0.9350904,-0.8652714,0.22952682,2.8578715,0.31950542,-3.626626,0.24521025,0.77721864,-2.162968,-0.84995925,-0.7054885,1.3164732,2.753928,-2.6000261,2.2020836,-2.9537146,-0.49684063,-0.960228,-1.5551306,1.6188984,0.02941688,-1.1709857,-1.3502276,-2.0879452,1.6576293,-2.0759442,-0.36871135,-1.2271123,0.74242723,-0.77497566,-0.31964558,-1.2911204,-2.5866988,-1.7324532,-1.2117045,-0.9576719,0.18528016,-1.089657,0.048982505,-2.195921,-0.18038708,0.13353962,-0.488749,-1.107154,-3.490373,-0.04720726,0.40160564,-0.95400816,2.2992694,-4.954714,-0.32236117,-2.8695185,-0.07809507,0.4975512,0.10227623,2.2148645,0.123623304,-0.14199439
attn_0_0_outputs,5,-3.1330426,-0.46453696,-2.2209184,-0.12438255,-2.207541,-1.35551,0.40956712,-3.7487707,-3.6421258,0.14334817,-3.4951112,-1.5041746,0.2993682,0.7286311,0.52918756,1.6492083,-1.3742553,0.23296835,-0.28435245,0.1563274,-1.6429324,0.484054,-1.2950817,0.02767413,-0.5166968,-0.6734213,0.5385154,1.223788,0.674614,-4.5101557,-0.4120623,0.11849294,-0.8430376,2.4216383,0.80905527,0.7561228,-0.46904168,-1.206157,-2.208458,-2.3386104,-0.43891668,1.1877893,0.72300774,2.4509542,-0.5702693,1.8311815,0.8959679,0.90541464,-1.2764202,-0.043288626,1.7130773,-1.4349331,-3.194238,-1.5215499,-1.8461506,1.1425511,0.34775266,-0.22094445,1.2557757,-2.2498033,0.722393,-0.7446209,-1.6706702,-0.84480023,-1.0882016,1.5035427,1.8754641,-0.65860116,0.015913341,-3.036787,-0.5515646,0.12540025,-2.7743685,1.2687964,1.7909632,1.1571716,0.21015339,-0.31761444,0.33433378,-0.20350908,0.34452823,-0.36199102,1.5509796,1.4697751,-2.2174945,0.26909447,0.584023,-1.6214656,-2.3004026,-0.8365659,1.1319106,-1.1906319,-2.5578747,1.1379151,-0.66368705,-0.96687067,0.774169,-0.051342532,-0.059931345
attn_0_0_outputs,50,-1.8821684,0.8159654,1.0738848,0.53362906,0.88251626,0.76022065,-2.4365294,0.7140016,-0.9303049,0.2537684,0.7860711,1.8956255,-2.4023058,0.42030504,-2.7233703,-0.19564429,-2.0177462,0.32386708,-2.768357,-0.14125155,-0.47567335,-1.585365,1.4189551,-1.8434336,0.69049203,-0.5135295,-0.9346581,0.8580026,1.4867376,-0.9338211,-0.4595214,-0.76903975,-1.4834877,-1.6234231,0.3218401,1.1796309,0.32982683,-2.987367,0.5261651,0.4358046,-1.2151146,1.0061901,1.2972566,-0.72094774,1.5325435,1.982865,2.0627105,-0.1904168,-0.8491121,-1.3663615,-0.89731,0.519756,-0.49740553,-1.4075018,-1.7647661,0.3460607,0.9661408,-0.99286586,-3.6062136,0.90312886,-0.5080916,1.2326516,-0.83047533,-1.7050681,-2.2184186,-0.40887585,-1.4350672,-1.7596835,0.30415258,-0.7410629,-1.4617083,1.0758475,0.9961254,0.8114903,-0.65196276,-0.77111953,-0.9044848,0.8461346,-0.75179714,-0.12672065,0.707905,-0.39019305,-1.4675149,-0.29511636,-2.900251,-0.23523447,-0.62126535,1.1141989,-2.2605083,-0.97756886,0.12939489,1.3280019,-1.7528603,-1.521221,-1.8776797,0.7704842,-0.37984037,-1.9862313,0.1239631
attn_0_0_outputs,51,0.36076465,0.23371057,-1.4281753,0.6202988,-0.05201357,-0.1682837,0.77320325,-0.19638416,1.3330436,-1.2298417,1.1814214,-0.8331432,-0.8542232,-0.70101595,-0.5224284,-1.5707605,-0.8552806,0.12644961,-0.966828,-0.35827973,-0.02498973,-0.84970045,-2.1793373,-1.6618942,-0.4347598,-0.14205994,0.59955204,0.64215094,-0.3898383,-0.4293634,1.0174866,-5.340131,-0.7114784,-0.2950358,0.2130101,0.66979825,-0.46979165,0.8107353,0.49769068,-1.1235598,-1.2421451,-0.57898486,-0.07158574,0.5086527,0.054988816,-1.3923899,-1.2525092,2.2411776,-1.9739356,-1.4886862,0.48165488,-7.303666,-2.3456361,1.7609978,0.6768896,-1.7069699,0.45512277,0.9590459,1.2958645,-2.3254943,0.53658086,-3.121438,0.14174826,0.4383674,0.5797304,-1.9907725,1.073474,-0.37421072,-2.2499287,-0.57052773,0.51083636,-0.6334777,0.09395523,-1.661712,-0.27961186,1.3794376,-0.47491044,-1.2351296,-0.15040317,-0.47959673,-3.6802354,0.7140812,-0.9279417,0.76393366,-0.95008636,-1.6598712,0.30946398,-1.9666749,0.6531715,-0.21058564,0.32521093,-0.6390004,-0.55057234,-1.3838167,0.33193183,2.8192515,1.1511414,-0.74033934,-0.1824392
attn_0_0_outputs,52,1.8277875,0.092220694,-1.273362,-0.53147054,2.6036801,1.2113938,0.022223625,-1.0655792,-0.44616872,-1.1935415,-0.8159845,-1.4542943,0.7210625,1.2203563,-0.43500802,-0.37214223,-0.25137925,-1.4339269,1.4164078,-0.9237424,1.3824323,-1.9276993,0.60920703,-0.618849,-1.8739283,-0.6357076,-0.18028095,-2.3820298,0.009909637,-2.062615,0.3370265,-0.22386846,1.3251631,1.2484269,1.7070775,0.7994359,-3.8059762,0.8706229,0.8376506,-0.7570119,-2.248269,-0.8625493,-1.1336144,-0.41742122,0.5274927,-2.700913,-0.13550298,-1.1564534,0.7685087,0.13207048,-0.13968962,-0.36561152,0.35818294,1.8223013,-1.9748577,-1.19524,-0.71712464,0.23125185,-0.7235473,-2.2522893,-1.4079977,1.6799833,-0.5622793,-2.5587618,-1.5055572,-3.3369358,-1.9940839,0.20266108,-0.32309508,-0.620948,-0.5640321,0.94928163,1.08922,-0.6969127,-0.77881217,-0.29092106,1.5578822,-2.9759846,-1.0769414,-0.19755396,0.8417598,1.4339712,-1.5361135,0.46866176,0.49493548,-1.2537261,0.99995124,-3.6439717,0.1396978,-2.0925114,-2.090452,-1.1821908,-0.8887149,-0.5423196,0.29709053,1.1539785,-1.1936785,0.25629014,1.0013407
attn_0_0_outputs,53,-0.90435153,0.22341125,1.2721833,-0.0020478303,0.27336973,-0.043246772,-0.13942735,-0.5140347,0.52513033,-2.718949,-0.61717427,-1.4505259,0.47758752,-0.6309115,1.6923273,1.1134259,-2.8622122,-1.2245115,0.64651287,-4.3351636,-0.74986964,-4.392525,-0.41296184,0.5047642,-0.84672093,-0.86367244,0.24549504,0.15468073,-1.4445988,0.32457182,-2.5778356,-5.0876403,2.1737602,0.90703446,-2.0440886,1.0952679,-0.046304807,0.38135895,2.0426877,1.1401927,-1.3360336,0.27690354,-0.27581266,1.46856,0.19489476,-1.1891718,-0.7111888,-0.039194275,0.7177836,2.1119893,0.7186078,-1.063565,-0.73705584,1.3219714,-0.79702526,-1.1010754,-1.860628,-2.571212,-1.1869961,0.7710314,-0.39244458,-2.2355654,0.80294275,-1.1544236,-0.6648871,-2.397667,0.26974976,0.42981339,1.0411354,0.55065936,0.6269838,-1.8358076,-0.27190217,0.28774908,0.5602758,-2.5115979,2.0031047,1.600179,0.5953456,-2.496895,-1.221061,0.44034815,-2.1398838,-2.9635746,-0.012276961,0.60649997,-0.55948055,-1.6570436,-2.0460904,-0.8414568,0.1900822,-0.2690712,-2.1235154,-0.8018818,-0.73891973,-1.6691253,-1.1285392,-0.0018508608,0.28295225
attn_0_0_outputs,54,-1.0174165,-0.023552336,0.74572766,0.7256118,-2.4518123,-1.4108689,0.6045403,0.7197462,-0.24530129,-0.36793774,-2.0294611,-1.7466328,-2.4527862,-0.8988175,-5.6759315,-0.064817995,0.8303402,-0.046444397,-0.9352827,-0.22700544,-1.6031114,-0.85295135,0.09690383,0.18841828,-3.167643,0.18403873,-0.8103604,0.55366206,-2.3020525,-0.47638103,-1.2247394,1.8371897,0.46739265,-0.9613273,1.4187918,-3.2750196,-2.7475276,-1.0924321,0.8834081,-0.2547563,1.1863474,-0.2139141,-0.6597509,1.90468,0.82921004,-2.7497683,-0.34681988,0.51376593,-0.23695569,0.5901255,1.4426597,-2.1622236,-1.2964044,0.927592,-2.2278323,-1.3239017,0.622645,-0.73568577,0.32008553,-0.123940624,1.5160153,-2.1597104,0.30363452,0.11079483,1.085781,-0.94160986,-0.58712304,2.078978,-0.9232036,0.7072647,-0.51494664,-0.49930996,0.28658783,1.409663,-1.0214103,1.9445088,-1.6401868,-1.6363844,0.97645766,-0.38740382,-0.18504322,-0.2750628,0.5074406,-2.311547,-0.46356583,2.139734,-0.4607721,0.55443263,-0.67064005,-1.0555242,-2.3764079,-1.1274916,-1.9577645,-0.62339485,-0.634334,-2.2207918,0.5996188,1.0620112,0.12051658
attn_0_0_outputs,55,0.2889406,-1.2696924,0.76240385,1.1170715,-1.8197285,-0.35970762,-0.88255155,-0.62630063,-0.2761603,-0.3277332,-0.5437065,1.4181248,-1.378918,0.7239851,-2.0222645,1.1923548,2.0722215,-1.1837566,0.036860745,-1.9191629,-2.0022953,-2.1613114,-2.1357021,-2.5676205,-3.0992427,1.0702132,-1.0286756,-0.20877747,-0.5029265,0.17354257,1.3364403,-1.3011721,1.2470934,-1.760912,0.10048338,-1.364902,-0.105896145,-2.577221,-3.267623,1.4236708,-2.6237488,-4.8518944,0.8737975,-4.495279,1.033451,0.9610666,-0.9938266,-3.5173912,0.9086626,-0.82281077,-0.15127511,2.7956283,0.06987577,2.2429276,-1.5087112,-2.487053,0.14129436,0.05501942,-1.782115,2.5286644,-1.5543731,0.5162405,1.2665265,-2.0107024,-0.118279465,-0.13805771,1.3030547,1.5148729,-0.7319739,-0.7570795,-1.3250898,0.84679943,-4.8305507,-0.36434373,-0.07858038,-0.5402079,-2.2373881,1.008608,-1.3437068,-1.6599553,1.2093914,2.0497148,-0.3605002,0.13380843,-0.13980384,0.41285795,-1.4158477,0.34655657,-0.9014765,0.06345506,2.6468701,-3.0210996,-1.0669427,0.26298776,1.5245686,-1.6011746,0.860956,-1.6431149,0.24722593
attn_0_0_outputs,56,0.49858248,0.27675968,-0.5948512,0.24846658,-0.46482608,0.40830487,-0.060393795,-1.0034885,-0.16717014,-1.2042525,1.1465212,1.120347,-0.29003394,0.37130082,-0.5836742,-1.5184541,-0.54309005,0.5435001,-0.06760364,-0.64518243,0.0017953002,0.4211339,-3.381704,-0.5355333,-2.4899356,-0.70654285,-1.3018737,-4.4273224,-1.5181006,-0.17350365,-2.9086022,0.08693714,0.27440044,-0.5942369,-1.6952726,0.15912235,0.38229695,-0.1708377,-0.70914996,-0.6970035,-0.020106275,0.36839104,-0.5792011,-0.84536195,1.3427556,0.04006434,0.791362,-0.84599024,-0.34840772,-0.39004755,-1.6421341,-1.293249,1.4946048,0.20253894,1.7585156,0.092047565,0.041606534,0.6334506,-1.1063472,0.008750418,-0.49998742,1.2667282,-4.412839,-0.75171286,-0.4216399,0.6705966,-2.1475534,-1.0179281,0.43692526,1.8673505,-2.2791457,-0.92212677,1.110737,-3.9983683,-3.8148904,-2.7313266,-0.47281277,0.20729928,-0.4441381,-0.98376334,-1.3862872,0.38759452,-0.10856402,-1.4214842,1.6253315,0.15308002,0.92872393,-0.104895085,-0.4268059,1.3912326,0.7156806,-0.6816859,1.8159174,2.3022988,0.17110378,0.46526358,-1.1104561,-2.7862496,0.26147404
attn_0_0_outputs,57,-0.5381354,-1.2882245,0.9094244,-1.0967025,0.95726335,-1.7355003,0.109917134,-0.30482557,0.80419445,-0.44651902,-2.400996,-0.58054584,0.7828425,-0.8298833,1.817293,0.23979329,-2.3603048,1.1175233,-0.73694277,0.66179436,0.32390147,-1.2469096,0.39615354,-1.627641,-4.457569,-3.5389144,-0.4074665,0.95174474,-1.5192158,-0.518043,-0.4778375,1.2734673,-0.42413345,-0.7618037,0.36847177,-1.2830563,-0.11275572,1.2772076,-1.617611,-1.0472347,-0.11719491,-0.7402371,-3.5531132,-1.946139,1.1794395,-1.6981878,0.77393687,0.68913597,1.0804524,-2.0870173,-0.14272708,-2.5692189,0.36893162,2.082481,-0.5568992,-0.8039753,1.8107532,-0.80712694,-2.6100597,0.7832655,-0.547796,0.82705766,-3.372884,1.3375359,-1.5054266,-1.1290386,-0.74887437,0.448313,1.1888393,-0.98022604,-0.14863823,-0.93122995,0.5176461,-1.6291094,-0.9182103,0.19103579,0.07656376,-2.165048,1.0720155,0.8839026,-0.5022438,-1.8474733,-2.8437839,-0.13187346,-0.76122683,-0.20909785,-2.071116,-0.20583965,-0.52361566,0.81489533,0.99784297,-2.3437235,-1.4249036,-2.088646,1.3211551,1.0957848,-2.998543,1.6033278,0.3171815
attn_0_0_outputs,58,-0.06857381,1.4803262,0.40712065,0.8237418,-2.5558972,2.5965772,-1.4243629,-1.0291864,0.016262202,-1.5323985,1.292662,0.3586804,0.7150981,1.1819999,0.28710538,-1.3740615,-2.8805864,0.23224765,-1.0633456,-1.0755023,-1.4062494,1.2844136,-0.43638575,0.59208816,0.5508978,-0.03902888,-2.0389566,-1.2550018,-1.3240623,-0.75764114,-0.22883165,-0.02830224,-0.6803442,-3.0719955,-0.7835678,0.236,-2.8701289,-0.112809226,-0.24644779,-0.77923614,-1.5608263,0.31317306,1.1962109,-1.2569222,-2.6690357,-1.8404185,-0.09572597,-2.5064728,0.19377695,-0.38660842,-0.2601812,-5.197595,0.28430986,-3.4154465,1.5374088,-1.3212339,0.62028074,0.16331692,-1.1586291,-1.7431581,-2.0692222,-0.23888983,-1.2472016,-1.5910964,1.1837186,1.6026005,0.44973066,3.688101,-2.7580075,0.91891754,-0.13632378,0.6361206,-0.19760333,-0.19472787,1.9277216,-0.5970038,-1.9993639,-0.15858802,-1.9765373,0.7513792,0.7847631,-0.7704065,0.9775345,0.49932712,-0.18850042,-1.1228974,-1.0231234,-1.0632833,-1.7184017,-0.9159821,-2.674695,0.30319032,0.75152653,-0.97747564,-0.665817,-0.86320597,-0.7145331,0.96744126,0.07890438
attn_0_0_outputs,59,1.5208558,-0.08754124,-0.9486934,0.43400848,0.45499387,-0.70706636,-1.0125936,0.6935828,-0.67146325,0.12642837,0.7411054,-0.5977395,0.2719618,-0.40073118,-2.6876805,-1.6118164,-4.1666603,2.7291768,0.32745123,-2.3118773,-0.44691697,-2.2758229,0.6364519,-1.2561336,0.3197315,-2.9182029,0.28089768,0.6309419,0.1519949,-1.6341919,-3.266985,-1.2496258,-2.0001888,1.4732783,-0.15953253,1.5176567,-2.4875422,-2.1434736,0.5241018,-2.4988725,0.034808096,-1.3982065,-1.428708,0.9266307,-0.31180447,-0.98628646,-1.1451368,-0.7483593,-1.0059029,-0.62586063,-2.529331,-0.23117729,1.8818233,0.5805516,0.5125966,1.4121605,-1.6009238,0.87983125,-4.1719556,0.42858976,-1.5672035,-0.29840797,1.1503016,-1.6712255,-1.1310244,1.1740876,-2.281029,-1.5735805,0.80683875,0.4450509,-1.2672498,0.42971677,2.6004014,-1.0048468,-1.976153,-1.1482639,0.5059851,2.1159494,0.1497308,-1.05751,0.097413436,-1.4187132,-2.199439,-0.684441,-2.0261402,0.27271795,-0.62323713,-1.7370489,2.0396893,-0.1497205,1.0175195,1.6065737,-3.241904,-0.46717823,0.5500835,0.047413502,0.4409961,0.73748505,0.4474327
attn_0_0_outputs,6,-1.6541296,0.0075140437,0.10381977,-1.008061,1.4143956,0.045500312,0.40705404,0.6102178,-0.034617484,-0.66966856,-1.6723417,-0.44497085,0.30228138,1.4194372,-1.2759521,-0.35499188,1.0933024,0.7095393,0.578525,-0.3704876,-1.9624704,-0.1341113,-1.744285,0.46266603,0.34986147,-0.10586508,0.24638385,0.34800243,-0.066999145,-1.6486418,1.369147,0.8259082,-3.8326542,0.21111518,0.59970295,-0.16357781,-0.2095585,1.0039831,0.1129549,1.0111532,0.6942148,-1.2403495,-0.16871525,0.79197055,1.0770985,1.7835255,1.2214067,-0.5164077,1.6845526,-1.4148749,-1.6569728,-2.0273986,-3.2194016,-1.058643,0.60652184,-0.075579494,1.8369689,0.37823293,-1.2213928,0.04606085,-4.541329,0.077197574,-1.6542175,-0.32512632,1.5257831,-2.5824578,-0.084929354,-2.027254,-1.197256,1.4096699,-1.1834836,-2.654819,-2.6474078,-1.8203853,-0.9063531,-0.6810266,-0.20382841,1.3472606,-0.6842534,-0.29556337,-0.938458,-2.1975152,-0.15345508,-0.4013875,-2.072753,-0.2525501,-1.1448957,1.2338655,0.27835342,-2.630209,-2.0354943,-2.3779516,-0.8635968,-0.3576812,-3.5315874,-0.45537546,-1.0470322,-0.9191238,1.0525908
attn_0_0_outputs,60,-0.4628591,-2.1288676,-1.8108724,-0.18931304,0.019345317,-1.6696813,-0.81509286,1.0119464,-2.6671011,-2.4554367,-0.8819935,-0.9502251,0.97469443,0.19895408,-1.6777637,-0.65668637,-2.1909,0.9257933,0.27292833,0.5194575,0.41044936,-0.42256954,-1.5293895,0.23048341,-0.4207407,-2.6027462,-1.194857,0.48937955,-2.2436633,-1.1979889,-0.7525731,-1.1246027,-1.5586816,-1.9795257,-0.3434489,-0.08157221,-0.028994445,-1.7796243,-0.8318243,1.0736202,1.3745193,0.3317541,2.849375,-0.34869084,2.1248596,-0.5622261,-2.0729125,-1.3379215,0.44775403,0.14816917,0.804065,0.3718667,-0.21845074,-2.6181684,-0.6309548,-0.97097635,0.88430756,2.1284187,1.3654935,-1.7067945,0.005710759,2.0987048,-3.7034588,-0.28753525,-1.9019728,-0.7708705,-1.5355694,1.1608623,0.2612925,-0.37274638,-0.21706599,0.1666553,-0.28997558,-0.16178703,-1.1513883,1.5319421,0.9880562,-0.8161249,-1.000638,0.70271355,-0.68570095,-0.88949066,-0.07769754,0.5738731,1.0764772,-1.7096187,-0.6979811,-0.46900082,-0.57931346,-0.5235775,-1.2000818,0.047583576,0.9157289,-0.41163114,-0.9676849,-0.15221092,1.1779125,2.3989928,-0.07027133
attn_0_0_outputs,61,1.4348727,-0.8684862,-3.4346454,-1.0562221,-0.9302256,0.4056249,-3.132411,-3.5167017,1.0530741,-0.33956915,-2.4657607,0.4746267,1.8892109,-0.9879994,0.5956508,0.33899033,-0.8307532,0.6799213,-0.04619439,-0.41259265,0.83975524,0.7925174,-1.8674148,-0.5621199,-0.23593186,1.1264471,-0.60325575,-0.4900192,0.71683055,1.7047027,-0.13371472,-0.16610292,-1.397024,-0.7253453,-1.6989402,-0.13484755,0.41285658,0.9805037,1.3794528,0.9083397,-2.0336764,-1.2558857,-0.23799156,-1.3080927,1.2973757,-0.26954097,0.7517446,1.9774674,0.74982244,-2.8868659,0.43788585,-1.6624433,-0.722455,-1.4388168,-1.7788383,1.4351038,-1.0249531,-0.0028362768,2.1449885,-4.220139,0.7189307,0.04052449,0.63177454,2.1973593,0.0627431,-0.86822045,-1.2453852,-2.409717,-1.8290751,-1.5208671,-0.19194505,-1.0136256,-3.4751043,1.6029234,0.338535,-0.7353564,-0.6335906,-0.6143843,1.1035836,-1.6356336,-2.6050205,0.40248814,1.8647708,0.9456778,-2.0911007,-0.51212597,0.59543717,-0.24293523,-1.296307,-1.116027,-1.1398364,1.8485175,-0.16051444,-0.18059304,-0.6923863,-0.57320446,-0.22245593,0.48565573,-0.6583013
attn_0_0_outputs,62,1.6097544,0.80587023,-2.1263328,0.019625371,-1.0438268,0.0035197497,0.8179301,0.31888893,-1.2413268,-0.23581357,-0.032772303,-0.6539415,-0.33765706,0.37792525,-1.8173416,-1.8371079,1.5922538,-0.09257816,-1.5427254,0.92618597,-1.2337035,1.6120458,0.36944503,1.2358161,1.6490858,-1.7567067,0.9671431,-1.4106293,0.7751037,0.58522946,-0.81699276,1.8079206,1.3347778,-0.02062238,-0.3522498,-0.64946,-2.911152,0.11044008,1.47042,0.31051844,-0.7980707,-2.607575,2.5220819,0.8271359,-3.2421994,1.1867975,2.7500749,-2.4666371,-0.97226053,2.1296415,-5.723471,-1.625808,1.130956,0.06635023,-2.0922804,0.12340549,-0.008189973,-0.3704342,-0.5706449,2.1681757,-1.886225,1.192904,-1.3324451,-1.0707304,-0.1899895,-1.132525,-0.40593493,0.66965836,-0.84592086,-0.6053051,-0.22008525,0.34961984,1.2992201,-3.822049,-3.0900853,-0.87436277,-1.9349446,-0.77303576,1.8936586,0.61049044,-0.47798827,1.6874835,-1.7169694,-1.7464492,-0.78038037,-2.1361747,-0.9491441,-4.2449284,2.3565147,0.79738575,-0.32614285,-0.61515296,1.5860641,-0.53752846,-0.95082563,-1.908736,-1.0347344,-1.2802651,0.65330136
attn_0_0_outputs,63,1.9335024,0.52694744,-1.3133261,-2.7046425,-0.4376535,-2.2288554,-0.54472864,-1.9922912,-2.593386,-1.4261242,1.7874637,1.3164287,-4.0922713,0.11741517,-2.7108085,-1.6466665,-1.1430674,-1.9601749,-1.1480687,-1.4970373,-1.1663264,0.7988856,-2.2055285,0.046422813,1.0834187,-1.0463648,1.7022451,-0.19230857,-0.14274384,-2.4556465,-2.038781,-0.1912933,-0.48063514,0.29206195,-1.0732632,-2.7419026,-0.88235503,-0.43319318,-1.0753772,-2.8157938,-0.45380223,-0.09029748,0.8533702,-0.747641,-1.1492512,-1.530552,0.36658204,-1.2090615,2.334541,-1.3210733,-0.8328718,-2.1105182,-2.0495002,2.333332,1.4985619,-0.017107943,1.4649663,-0.6196604,0.73114806,-0.16939023,2.2873893,-1.4068989,-2.0289693,-0.020409087,0.5659078,0.48451152,1.2203978,0.47169304,-3.6625192,-1.2849329,0.98846763,-0.53112286,-4.1859803,-1.4521109,-2.7371478,1.639517,0.5514845,0.23263529,1.0659041,-0.6608197,-1.2138504,-1.4792094,-0.64442974,-1.4344535,2.1467996,-0.2551593,1.3824611,-2.515027,1.8957211,-0.56575865,-2.0992072,1.4681077,0.083129644,0.4008005,-1.9272134,-1.3303024,1.6008081,-0.08678238,-0.5890354
attn_0_0_outputs,64,-0.474461,-1.6673068,-0.69422615,-0.21627297,-0.38265494,0.3134968,-0.23222816,0.38342685,0.050607353,-0.40743977,1.185695,-0.3114153,-1.9832226,1.520702,0.21402648,0.68578166,3.0198665,-0.63637894,-1.0755858,0.6668704,0.5840112,0.189914,-0.015826993,1.3379611,-0.76221055,-1.4205738,-0.5932291,-2.3725133,-0.20897692,-1.0497512,-1.3132061,0.3765483,-0.99191564,-3.1302166,-1.777485,0.19335061,0.21701942,-1.0537938,0.42431507,1.6976222,1.0838028,0.21428433,-1.5074284,-0.5819732,-1.6910653,-0.67716616,0.06220422,0.19978178,-0.3770409,0.22541687,0.18563916,-1.2769423,2.3771925,1.0823658,-1.2631663,-2.705497,2.0019977,0.5644659,-0.6756605,0.21514395,-2.2395785,0.23004621,-1.0908802,-0.042832118,-0.6875935,-2.6540365,-0.8652441,-0.023222119,0.09796865,-0.2750503,0.9062992,-1.1290897,-0.38105413,0.9774092,-2.36706,1.6171101,-1.3321911,-1.6494926,-2.418526,-1.0307912,-0.37940705,-0.15040363,-0.62140334,-0.1286897,1.168728,-0.041973,-1.5091003,0.68407357,-0.12772943,0.031468462,0.73217005,-0.116840586,-1.6286324,-0.8669205,-1.1882131,-0.27741548,-1.8540972,-0.41326046,-0.19164525
attn_0_0_outputs,65,-0.14564705,-1.0110042,1.1884804,-1.0268965,-1.5842096,0.8466465,0.72571844,0.031524487,-2.6859787,0.4674673,-1.7369875,1.1786958,-1.7626792,0.10482598,0.0023955142,0.26348928,1.9247285,-2.5031967,0.17550988,0.16900678,1.2361572,1.149877,0.051491033,0.009481473,0.32443196,0.21656768,0.57600886,1.8887386,1.4220061,0.19910082,1.3925482,-1.1308256,0.34840447,-0.9896205,-0.8471372,0.45750907,0.016689468,-1.739823,-0.8278039,0.24967678,0.7051855,0.7354781,-1.1622727,-0.6744242,-1.880274,-0.029552372,-2.9708233,-2.0898612,-6.582356,1.4914708,-0.34728804,0.25738728,-0.115957506,-2.6589196,-2.4305618,-0.29822963,-0.59203726,1.0249038,-0.5711399,-0.5496768,-2.595379,1.0833229,1.8638663,0.25847757,-1.5956305,-4.2206144,-1.0134476,-2.1211011,0.91588783,-2.12637,-1.7451869,-0.16327624,-0.024058986,-0.8795876,-0.32551265,-1.2115294,1.7158452,-0.33178687,1.4068638,-0.11383566,0.11675219,2.2090423,-2.1037529,-1.9019921,-0.3256823,2.0157998,-2.5284867,0.9316265,0.9737708,-2.6363895,-1.744338,0.45223996,0.21535544,-3.241424,0.80510443,-0.581148,-0.2417655,-1.5537133,0.40119022
attn_0_0_outputs,66,-2.3802397,-1.5435029,0.13383599,-2.0086532,-1.2956479,-0.22019649,-0.15118995,-0.44271475,-0.5395055,-1.1618474,-2.3796601,-0.8704337,-1.5531569,0.51805806,1.2650961,-0.23103385,0.089287095,-0.52201706,-3.7076952,1.7578698,-3.731557,-2.7736578,-1.2923812,-1.0712876,1.755613,-1.5322298,-0.1946677,2.792865,-0.12335295,0.037973013,-0.5154713,-0.9864305,1.5047957,-1.3878942,-1.0212684,-0.67175984,0.43206942,-1.3181583,-0.06059529,0.48569563,0.3228025,-1.4871671,-1.5028769,1.404357,-0.8113858,-2.1096268,1.6538013,-3.089004,-1.2433882,-1.4716191,-0.84360915,-4.5724826,-0.37687466,-1.5898976,-0.7612195,-0.052737974,-1.7837894,-1.8272916,1.4143994,1.1955184,-0.22403577,1.8932503,0.8192267,2.1996295,-0.36366838,-1.4357525,0.21630685,1.0513861,-0.34496263,-1.674808,0.5833109,-0.73918796,2.377703,1.3551022,-1.8920717,-1.7334121,0.56546247,0.4431611,-0.91621256,0.50077605,-0.6550911,-1.1992463,1.5024977,-1.3613169,-0.5605767,0.13457094,-1.1640068,0.23874931,-0.5897245,-1.0674746,-0.56456494,-1.9789785,1.2056878,0.32327065,-1.6662564,-0.51761305,-2.5156052,1.6737661,-0.6514216
attn_0_0_outputs,67,0.16596514,0.5764902,-0.94710624,-0.5255744,1.4136834,-0.8236295,-1.365936,-0.6963787,-1.1667622,0.48316383,-3.0519478,0.42590892,-0.6786074,-4.0736766,0.007835677,-1.6367868,-1.2216475,-2.7386203,1.15815,-0.35995492,-1.4633949,-2.5476434,1.0325471,-0.30451792,-1.671697,-0.89882904,0.71879995,0.29797077,-0.45956746,1.6596076,0.7157989,-1.89536,-0.51449895,0.67191607,-0.1574114,1.1496824,-0.3996701,-2.4678962,-0.2165125,0.73292184,0.7654804,-1.5185211,-0.74151486,-1.2391198,-0.14082724,-0.22805645,-0.29855207,1.1491885,-0.72382617,-0.4107446,-1.6892307,-0.5095829,-0.74911344,-0.027770068,1.5470259,0.34124222,0.4438703,-0.2625516,-0.1205498,-1.1262681,1.8460844,0.4660184,1.6648208,-1.4816923,2.3832307,-1.1749704,-1.5938356,-3.0252216,-0.7569698,-1.1812809,-3.7466888,-0.7156368,0.49086887,0.056754075,0.38748753,-0.18231863,-0.01238908,-0.3253694,-0.7106816,0.32379338,1.2194635,-1.2847763,0.10387844,2.5348346,1.0192873,-0.19359012,0.018043619,-0.6883447,-2.213843,-1.0438387,0.58593893,-0.5270797,0.3445911,-1.8312942,1.7342349,1.1427183,-0.5734381,-1.9253943,-0.0029978703
attn_0_0_outputs,68,0.4483406,-1.2495391,0.08247721,0.2695913,-2.0387394,-1.4949418,1.3200281,0.9111575,0.7724511,0.18744187,0.8309887,-1.8588614,-0.42565045,-1.1392027,-3.6083186,-2.9372265,-0.8316727,-1.0273871,-0.84785616,0.0785313,-0.19620246,2.2210693,-1.7120516,1.6432289,0.6536645,1.2785861,-0.82456714,0.07376746,-0.99784905,-1.5885717,-0.8312412,-0.71574837,-1.5952079,1.8377107,-1.1228892,-2.3296587,-0.26549917,0.0145448,0.33596233,-3.3272638,1.3203366,-0.5224095,0.22238438,0.06061805,0.070869885,-0.5640535,1.4113847,0.38105953,-1.1814036,-1.0296828,-0.6395016,-5.468536,-1.8790326,-3.1468067,0.35274273,0.8306246,-0.4170989,-2.1966732,1.2026999,-0.51534045,1.6654109,1.4041415,0.26839963,0.70333445,-2.0121477,2.578378,-0.6632657,-0.88505054,0.89925957,-0.4770611,-1.6163896,-3.44989,0.20776741,1.2233596,-0.65135366,0.42901647,-1.9454368,0.8292065,0.13066499,-1.8546572,0.8859514,-0.21958217,-2.3255537,-1.7852268,-2.8536718,-2.6665273,-0.40660807,0.4599781,-0.11640067,-0.5874448,0.5151354,-0.5605968,2.0499034,-0.72659874,0.3941298,0.79795706,0.6810003,0.43151847,0.35136867
attn_0_0_outputs,69,-0.29032883,-0.40124464,-0.07860366,-0.8456617,-1.6919498,-0.56302005,-1.5559545,0.4337283,-1.2884601,0.5128561,1.1953391,0.29393697,1.6007289,1.3636868,-0.98399657,-1.1535689,1.034585,0.92738986,-1.7331078,-0.3798844,-0.45116344,-3.3823252,-2.1525593,-3.6405547,-0.00452731,0.6268538,1.4226656,0.66559607,-1.7189697,0.15427738,-0.4494955,1.1399043,-2.3235517,-1.5875733,-0.7959104,-1.0726569,-1.8557222,0.07191123,-0.45421723,-4.37732,-1.1388252,0.5775457,1.0223857,-0.22006458,0.15468141,-0.053803317,-1.7792021,0.18610446,-0.7121842,0.075413324,1.0895997,-0.9581394,-0.5603108,0.5780133,-1.7716327,-1.1353658,-0.7752595,-1.6228077,-1.3110329,-0.66119915,-0.67616105,-0.046601888,-0.9390505,0.19930668,-1.7072972,-0.47253495,2.4733346,-1.9401944,-0.59559083,0.20052016,0.54032785,0.3586278,-1.3823384,-2.551967,1.770836,0.6681624,1.3584616,-1.6938605,-1.9850152,-0.022378422,-1.0378361,0.77725863,0.4501086,-1.296994,0.8416034,1.6109456,-1.2372683,0.60081565,-2.602928,0.12307859,0.9998481,1.6010419,-1.1664902,-1.571103,1.1287507,-2.2223403,-0.14496475,-2.738394,0.0344314
attn_0_0_outputs,7,0.44592187,-2.990011,-0.249405,-0.46047994,-1.1956019,-0.36050382,0.46534514,0.45400336,-0.39873368,-1.5879927,1.4156961,-0.97660327,-5.341846,-0.03886874,0.38830125,-0.3475345,1.0790007,-0.47776166,0.2704015,-0.5365764,1.6832169,-3.324986,0.388952,-0.5207972,-1.0960506,0.81480235,-2.426048,-1.1773417,-1.8558278,0.9784353,0.515858,-2.310388,-2.7819228,-1.3303375,1.2077421,-1.1451864,0.86996776,-0.7688725,-0.65353286,-1.7818706,0.4813282,-0.05100241,-1.0135529,0.901017,-0.065022446,-1.465354,-0.11253374,0.6045255,0.49930745,-1.8738196,0.078802206,-3.3315797,-0.6462067,0.7754622,-0.1730248,-0.118302606,0.8590513,-1.8142067,0.74509746,0.7692655,1.827814,0.23332827,-0.39695928,0.46125707,-0.5434535,-0.3997747,-0.69906086,2.7373462,-2.9319243,-0.17461932,0.14653529,-1.0903711,-1.6778786,0.36194625,-1.841936,-1.3243866,-0.5276687,-1.0187582,-1.4443347,0.96039027,2.2454987,-0.036540978,0.9595464,-0.87509227,0.39903817,0.17301726,-0.85603327,-1.1320632,-1.1631753,0.051507145,-1.2506115,-0.7423376,-2.2048604,0.21222413,-0.2544264,-1.4448453,1.0319855,-2.050318,0.046853423
attn_0_0_outputs,70,0.066268764,-0.78460157,-1.5757248,-2.2314734,-1.9015709,0.39714,-0.27716547,-1.2769101,0.22026631,-1.373728,0.28898808,-0.6478251,0.076678045,1.3937771,0.121194765,-1.1443746,0.49282867,1.012753,1.5760944,0.2272211,-0.31001118,-1.1238326,1.9050477,1.1312932,0.091970235,-1.4119251,0.29292625,-1.2490727,-0.5833426,-1.1465744,-1.0234755,-0.22910957,-0.4689512,0.3103205,0.37793624,0.33383417,0.73868465,-3.5405688,0.21319933,-1.1449257,-0.3859438,-3.1848645,-2.658322,-0.5258092,-1.2947879,-0.82719386,-0.16434786,-0.13899857,0.8510429,-0.3615605,0.9613284,-0.61119205,-0.6537701,-0.074269205,1.3403239,1.0504364,-2.0910714,-2.4961925,-1.434424,-1.905126,1.4723974,-2.0536606,0.15695618,0.8213009,-1.2120365,0.3310945,-1.193089,-3.0516558,1.9158343,-1.0132316,-2.1854434,-3.9211242,1.1349131,-1.9749248,-0.8052013,-0.4487102,-0.3610701,0.50848705,1.1297925,-0.6537709,-3.2678092,-0.54046375,-1.3473904,-0.724844,-1.3684314,-1.9176228,0.8180672,0.06255694,-0.1815087,0.5960467,-0.002829647,-0.6219819,1.7140912,0.11657649,1.1956638,-2.5608358,-2.9957018,0.62355894,0.92817575
attn_0_0_outputs,71,-0.56897295,-3.2276115,0.13183627,1.3110538,-0.7083264,-0.040378243,-0.22988462,1.8287997,1.661798,1.4013635,0.896299,0.6588176,0.15128818,-2.71541,-0.22388947,1.0649492,-0.49374905,-1.1774468,-3.5816207,-0.2975778,0.25295457,-2.4580595,0.8345945,-4.1459885,1.2985181,-1.4239346,1.726727,-2.182956,1.605879,-0.71247387,-0.2248146,-0.037644744,-0.99053895,1.9244821,-0.5724928,0.32699943,0.774836,0.645086,-2.2465236,-0.02908784,0.16722281,-1.3471625,-0.3663663,0.21153206,-1.0794803,-1.9132652,0.095075555,-4.2325954,0.80705136,-1.8523006,-1.7024428,0.39923117,1.3439902,1.3908585,0.92815065,-0.7271491,-0.59859896,-1.0622803,0.5890151,-0.41640294,0.2683721,-0.42153686,-1.1448935,-0.40690884,-0.49815527,-1.1166929,-0.36334163,0.69635147,-0.29272813,1.9237838,1.7055606,-3.591567,-1.0339278,-1.4083325,-0.10671435,-1.3779215,1.5170294,-0.9959951,0.46242118,-0.5678971,-0.669475,-1.3826991,-0.81533253,-0.26569363,-1.7373892,0.23097648,-1.0706602,-1.8524438,0.38730967,-1.362291,-1.7782549,-0.86021537,-1.6387275,-0.40301618,-1.8239157,-2.4154866,-1.2752849,1.0161116,0.6140857
attn_0_0_outputs,72,-0.7568495,0.19846936,0.5697869,1.5299414,-1.950642,-2.9912882,0.018364916,0.19355473,-0.4218884,-1.6819404,-1.1919461,0.6475316,-0.49945283,-0.71183413,0.14550154,1.0180422,2.5918236,-1.3468457,0.1880713,0.76322246,-0.31268716,0.3874414,-1.385123,0.6633456,0.020626292,0.23876984,0.4150938,-1.814287,-0.0035464372,-1.656319,-1.4955944,1.1664181,1.2297132,0.02453667,-0.12445051,-1.8586642,-0.82871515,-0.317324,-2.8357432,0.67339355,0.21325953,-2.37795,0.1853903,-0.025187815,-3.500186,-1.4472462,0.9564433,-4.3403187,-0.29347605,0.80154324,-1.5486668,0.17401601,1.489285,-0.59433967,0.054187194,-0.3190744,0.25811127,-0.43127435,-1.5124859,-1.3498614,-2.544991,1.3900287,0.8469213,-0.46239778,-3.814661,-0.1312818,-0.04371176,-0.01905856,-2.1293356,0.683688,2.0425107,-2.777966,-1.6994394,-3.5218248,1.3467386,1.0327791,0.7960014,0.23717393,-3.4507213,-1.739326,-1.772296,1.501245,-2.9125183,2.6631367,-0.6315911,0.04369103,0.8747971,-1.8319619,1.0167016,0.816033,-0.027182387,-1.5299536,-0.07595366,0.05776776,-1.4544983,-0.8798778,-0.65069336,0.69021416,0.58254683
attn_0_0_outputs,73,0.941694,-1.0623753,-2.3238125,-0.12694363,-1.7112689,-0.5904023,-2.9986973,2.4296281,0.5293707,0.013042136,-0.6328452,-2.8554947,-2.4419475,0.7447972,1.8396754,0.13072465,-1.1949873,2.0955133,0.33969173,0.18277673,-0.95388067,-0.3706335,0.12768881,-0.17148109,1.8557984,-1.0019956,-0.408423,-2.0825636,1.2640777,-0.40450972,1.749099,-0.59818274,-0.5101503,-2.033489,1.5019814,-0.77659523,-1.0991619,0.59488994,-0.97511995,-0.031550124,1.8458251,-2.7871256,-0.21952835,-1.3727765,0.87942374,-0.55446917,-2.2334592,-1.7461027,1.3547922,1.6990002,-0.5507712,1.743355,1.8134632,0.85883164,1.8005674,1.1745136,-0.58431894,2.2163477,0.85547376,0.7251407,0.09695333,0.8083238,-4.040277,-1.3033513,-1.3058362,-2.1463246,-2.5125175,1.5861353,-0.5687672,1.5265521,0.56272256,1.0196787,-0.4973952,2.0750506,1.1845601,-3.0830097,-1.6814926,-1.3638974,-2.7076979,-1.6769189,-0.85264707,-4.689894,-0.16166675,-0.47364023,-1.0965283,1.8777775,1.6851206,0.11591687,-2.6686075,-0.009412351,-1.2139666,-0.90320545,-2.3415678,0.40382418,-2.112408,1.4784428,-2.426287,-0.7313199,-0.0855948
attn_0_0_outputs,74,-0.026574183,-0.60687715,0.90259266,1.049371,0.65108275,-0.7795869,0.4740561,-0.097713865,1.6178881,1.5834407,-2.131131,-0.70906717,0.8335818,1.166415,0.5936062,-1.5546908,-0.02447297,-1.099708,-0.7182004,-5.205731,-1.8271475,0.76528364,-0.061945092,-1.7429802,0.3139516,0.5817976,-2.8084843,-0.6762717,1.760351,-0.26940188,-3.0975044,0.39251825,-2.7562263,1.0643924,0.07342753,0.8071976,0.6281866,0.78675246,0.39205647,2.2431364,-0.09557318,-0.7302797,0.25797454,-2.0889351,-1.2369461,-0.1224416,-0.9813184,0.5077659,0.7793472,-0.6880174,1.4296638,2.360738,1.935121,0.2073175,0.16505662,-1.3605835,-0.18973042,-0.51536727,0.056606423,-0.7416908,0.32184535,-2.6976762,0.20975393,0.4971033,-0.7218361,1.0081903,-3.3416014,-0.00034765512,-0.96969664,-2.4094532,-1.2697858,-1.5730847,1.5976915,1.1644347,0.22965924,0.045055985,-0.7235955,-0.36072937,-6.953598,1.4922477,-0.4315867,-0.8553382,0.4103273,0.33824837,-1.8028365,0.40982637,-3.0449116,-0.5710261,-3.139401,0.42114094,-0.55394846,1.3346249,-1.4572895,-3.2901978,-0.78101224,0.883057,-0.2039361,-1.5883999,0.11858817
attn_0_0_outputs,75,0.91678345,1.3841935,-1.7994529,-0.16675138,0.73032904,-2.9181373,-0.88190866,0.10836968,-0.41188172,1.6291144,-2.5770898,-2.0215867,-0.47286272,-0.49800906,1.7518034,0.4723719,-0.4126672,-1.1222498,-2.9701316,-3.454396,-1.2560364,-1.8681061,-2.159393,-1.1883279,2.5231278,-0.44812194,-2.9228544,2.6212404,0.15100591,0.98161125,0.8821926,-0.29392472,-1.2950093,-2.5268831,-0.18467303,0.34361398,0.79968596,-3.4197598,1.5715982,1.5820402,-0.97556466,-3.1189342,-3.683055,0.12976402,0.27323812,-2.453208,1.1827278,-2.0325115,-2.18633,1.1251945,0.8837317,0.3887742,0.5824672,-1.0149212,0.22002137,-2.372846,0.34147665,-2.2446945,0.96813864,-0.80030704,-1.9115711,-0.5339265,1.7077872,-0.0928313,-1.2816578,-0.26408568,-1.004481,1.3104978,1.2166862,1.5463703,0.45790684,-0.40860108,0.8308157,2.263288,0.7980365,-1.3481296,-1.9253216,1.6243135,0.849102,1.1608022,-2.2478392,1.0100102,-2.1261554,1.0253953,0.8655652,-1.4854834,0.62040174,0.5924015,1.3465282,-2.0797064,-3.195385,0.54818165,0.11501338,-1.5876354,1.1158924,-6.2167473,-0.7413261,-4.28546,0.8921432
attn_0_0_outputs,76,-0.16911645,-1.2189622,0.22037742,-2.6423237,-3.1866415,-1.3555536,-0.43577942,-1.1331363,-0.18407269,-0.95506406,-2.069119,-1.2557392,-2.2477534,0.5117396,-0.9380164,-1.1860343,0.2541151,-0.5070691,0.62121606,-0.11823732,-0.30736285,-1.6307914,0.3088699,0.48426256,-1.5506456,0.30307502,-0.29125074,-0.3067066,-1.5776224,0.8835545,1.2212226,1.4730619,-0.0062204446,0.2623235,-4.008371,-0.2915217,0.6342801,0.73150456,-0.701382,-0.060923643,-1.7850713,2.2294183,-1.5575742,0.13994962,-1.1513433,-0.6344831,1.0478423,-2.123702,-0.59706527,1.4592742,-0.33126062,-2.5800562,0.8341336,0.820747,-2.2125432,0.8428122,-0.41754428,0.30106324,0.34857515,1.0181842,0.97182614,0.99871635,-0.9358288,-1.7098588,0.09289285,-0.66124004,-1.2284425,0.9553234,-2.7097323,-0.76098686,0.26901755,0.6010538,1.0977412,-0.39488208,1.8583589,0.37443835,0.4032367,0.5035639,-4.578273,-1.972091,0.9599473,0.09835198,0.69563794,-3.3874757,-2.3962197,2.3175604,-2.690141,1.3765826,-0.3113802,-1.5030125,1.8270396,0.9385313,-0.1262449,0.5195949,-1.4444813,1.4940408,-4.383341,-2.4697423,-0.27188867
attn_0_0_outputs,77,-0.16380027,-4.318424,-0.42043856,0.25838134,-0.74134314,-1.1006296,-1.6195687,-0.22195858,0.5326945,1.729475,-0.39386374,-2.8946495,0.5537894,-0.39412507,-2.8545601,-1.4838952,-0.9599416,0.9968907,-1.809711,1.8835738,0.15943523,-1.1866497,-0.4683095,-0.20163794,0.7675884,-0.27023393,0.061002184,1.2482564,-1.9735067,-1.3724558,-0.1774006,-0.13076873,-1.517819,0.29038084,-1.7696007,0.29152545,0.73437506,-0.5666805,-1.5966709,-1.4861304,0.93757594,0.760546,0.9231683,-0.4491854,-2.023886,-0.5275193,-1.3190919,1.8614949,0.43305415,-0.45270002,-0.03652516,-0.46369058,-2.958469,-4.567411,-0.5564324,-0.38358253,-1.1901021,0.50036913,1.2900465,0.3328729,-2.311292,1.4684811,-3.068476,-2.0333846,0.13129714,0.34544697,-2.5777605,1.5211838,1.7761784,-1.6621975,0.81129223,-0.55017555,-1.3737512,-0.101621345,-0.65377945,2.4372287,0.3241142,-1.5629039,-0.16754289,-2.7633047,-1.2208203,-1.4677371,0.4083496,-1.8269935,2.3854244,-0.7165908,0.6019582,-3.3116255,-0.5265645,-1.3761927,0.1744251,0.8660603,0.05777979,0.3229082,-2.7635012,-1.7247525,0.5633211,0.48114508,0.4790486
attn_0_0_outputs,78,-2.478175,-1.3297724,-0.41513345,-4.629868,-0.6991909,-0.54890245,0.8643804,-1.6570662,-1.7349515,-2.195701,-0.2096947,-0.7231454,-3.2094035,0.6092086,-2.039409,2.066423,1.914929,0.2294837,-0.017776825,-1.1087359,0.19428192,-0.12097299,-0.2370722,0.4234036,0.86806756,-1.6163744,-0.32806894,-1.6905158,-1.4177206,-0.010156592,0.108931296,-1.3785532,1.8459481,-1.0397761,-0.5456998,-1.2243663,-0.94956094,-0.90969896,-4.5362844,0.14269143,1.8400698,-1.6950289,-1.0524318,-0.16154906,-2.866168,0.82819533,0.22401142,0.76445717,0.2384094,1.2468629,-0.7955324,-0.6384553,0.5711341,0.351791,-2.1663835,-1.0212532,1.2003183,-0.24913417,1.5680028,0.01692544,-0.2398449,0.34655887,-0.43991128,-0.5820927,-0.22553702,1.3883538,1.5068307,0.33878815,0.1904498,0.051308505,0.46937552,-0.7822143,-1.456235,1.3508654,0.9284258,0.19689275,2.107987,-2.0325227,-0.8518656,-0.09562547,-3.0640228,-0.90631765,-1.7153559,-0.947128,-1.1604863,-3.783737,-2.473957,1.6772343,-0.30368719,-3.2183285,-0.67713344,-0.7642527,-1.3765068,-1.7214622,0.7409994,-1.3251445,1.0366317,-1.4869065,0.32606718
attn_0_0_outputs,79,-2.0153584,0.9074611,0.00087192655,-1.3282784,1.0262637,-1.3983337,-0.20902926,0.33778563,-0.20192832,1.241819,-0.061006013,-0.17694233,-1.5711629,-1.929881,-2.3995678,0.8085728,-1.0304292,-1.3587408,-0.37186667,0.017190166,-0.09043126,-1.1021087,-0.20097756,-0.9982371,-0.4442596,0.9044629,0.03997476,0.81356096,-0.5338793,-2.0585434,0.7862713,-6.3724422,-2.1508484,0.44405523,1.3670348,-0.022019703,-0.30518243,0.3893995,2.0260131,0.26904514,-0.34696943,-3.8380299,-2.342431,1.0553391,-1.3784251,0.77556676,1.4783686,1.0366038,-0.18790902,-1.3308609,-0.7754944,-1.377534,-1.2249836,-1.0077493,-0.36594138,-0.9646671,-0.8930023,-0.7072686,-1.6919763,-0.38106364,0.38772088,-1.1449195,1.6662644,-1.189613,-0.16283983,0.42242235,-1.5795499,-1.4860834,1.591093,-2.3504622,-0.31088454,-0.24310857,-0.17236443,2.5111778,-1.5926081,1.098901,-3.7452729,1.1588689,2.1828957,-1.9257433,-1.9751686,1.3953685,0.4030445,-0.8029615,1.0807223,-1.3733749,-1.9789445,1.5924624,0.9499688,-0.100396484,-0.5317353,0.7869191,0.16604981,-0.7069978,-5.3868127,-1.2482029,0.45841032,-0.15032485,0.4606748
attn_0_0_outputs,8,-0.2270198,-1.6234858,-0.429199,-1.3798931,-2.7656887,0.008506744,-1.3432343,-0.6622913,-5.817846,0.0518052,1.2621713,-1.7315983,1.5729244,-0.6861061,0.6129124,0.10217385,0.09773565,0.7711202,-3.0914402,-0.03206379,1.9255049,-0.061171725,0.50839263,-0.42569104,-1.5644087,1.7454698,-2.335503,1.3862345,-0.5760325,-0.98470026,-3.2569537,-0.2072929,-0.8660499,0.1296174,0.37659252,0.8224944,0.69959635,-0.68871,0.41789016,-0.5717974,1.0324545,-3.5952847,-0.07368713,-0.42806533,0.33867076,-0.35168266,0.20454828,-0.16175294,0.55895203,-0.67795,0.76905066,0.12316222,-0.96251714,-1.5016893,0.38102603,-0.46028015,1.7169939,-0.26187876,-1.8559425,-2.5595553,-3.4376185,0.6303157,0.999803,1.1680766,0.12617394,1.4123938,-2.0831025,-0.08458149,-0.6827726,-1.2671878,-0.38905823,-1.9870684,-0.57463837,0.7415646,0.17591831,-0.26335457,-2.1139147,-2.219907,2.0293648,0.5336671,0.19087066,-0.27089256,2.661723,-0.15031448,1.0528142,-1.1657468,-0.59506184,-2.3935733,-1.3787705,1.7406062,-1.4661764,-1.7941179,0.7546006,0.41762716,-1.3478495,-1.2846256,0.12352627,-1.270483,-0.106739044
attn_0_0_outputs,80,-1.3567421,-3.3440762,-0.8223382,0.27880472,0.4941767,0.01590184,-1.2458314,-0.76616716,-2.8312173,-1.3160297,-0.22813582,0.8929679,0.4314145,1.9011695,0.6673094,1.1371263,1.2869401,0.049824618,2.2018735,-4.7826943,0.8616015,-0.2747574,1.7735978,-0.6402886,-2.3832889,-2.7217612,-2.0327303,0.21002182,-0.82344294,-2.4877179,0.062011667,-1.3252409,-1.5622748,0.99952,-1.4579418,1.1511327,-1.9751519,-1.5071971,2.0890164,1.8695438,-0.18193059,-0.6756163,0.20795403,-1.8622706,-0.4995466,1.825137,-0.74225307,0.063323244,-2.571533,0.3933226,-1.3702478,1.4806195,-3.6089823,-1.9833844,-0.8596487,-1.2684382,1.4138762,-0.19762455,-0.47152588,1.7631731,0.1544782,-0.42111433,0.061260235,0.55987924,-0.5355237,-8.454138,-1.7467129,0.8668324,-2.382746,-1.7827636,-0.2171241,-0.15237063,-0.7087732,-0.7487653,-4.834113,0.34140334,1.3993628,-0.97669613,-2.80367,2.614239,0.24156246,1.443195,-1.1646005,0.6362211,-0.5298014,0.72846663,-2.439223,0.60750633,0.90433365,1.6842074,-1.1602758,-1.2395555,-1.586177,0.0010154411,-0.2833208,0.88503,-0.5277304,-0.8758872,0.7208074
attn_0_0_outputs,81,-0.26852718,-0.08510803,-1.2483696,0.68755263,-1.5098534,-2.1030955,0.41046453,0.2902507,-0.110841475,-0.092703044,0.3683623,1.1477114,0.6226371,0.48302248,2.13933,0.35612354,-4.03367,-2.7706263,-0.4841564,-1.1781218,0.34930676,-0.9596359,-0.15338846,-0.48883307,-2.8201516,0.31724173,0.035585698,1.7007407,-1.9250305,-1.441179,-2.2100825,0.6811427,-0.10419677,-1.0463338,-1.1237565,-1.6303167,0.12278999,1.196926,1.5487525,0.09047336,-0.7252069,0.74352837,-2.7639234,0.03445629,1.727804,-2.1412566,-0.26655132,-0.22940068,0.44389588,-1.4130533,-1.3899703,-0.32835194,1.2312778,1.3541371,1.4319164,-2.4150753,-1.4769753,-0.37395006,-1.9083343,-1.3365557,1.3932023,1.8049059,-0.21265857,2.410376,-0.6788104,0.8547427,-0.64164484,-0.5495014,-5.4314027,0.5828777,1.7791529,2.5025811,-2.8764646,0.95790946,0.049688194,-4.777512,-1.1495955,-1.6733602,-1.3667858,-1.5559647,1.0007954,-1.44017,1.4197118,-1.5913379,-0.64972246,0.5587972,1.1449275,-1.3005391,-0.30689755,0.34809807,-0.5669485,-0.06990594,0.15939505,1.1876023,0.9198783,-1.4382484,0.096141145,1.1163607,0.5183887
attn_0_0_outputs,82,0.7990265,0.5670436,-2.3331184,0.44270912,-0.5010266,0.35689577,-1.6457586,-0.7583319,-0.44593835,-0.97411376,0.26059493,0.39071396,-1.2789996,-2.37342,-3.1671174,-0.021764152,1.3247739,2.4695616,0.30859262,-1.5166782,-3.1146095,-2.625499,0.7888021,-2.3499866,0.039086416,1.1416663,1.3453057,-1.3559577,-2.0948722,-1.8454899,1.2373577,0.9235917,0.3959045,-1.6665213,-1.228234,1.1303002,-1.0920565,-0.17446326,0.5688368,1.2655871,0.6388968,0.65017796,-0.22295234,-1.825968,2.1723835,-0.19050878,-0.15062138,-1.2127318,-1.7236848,0.40451887,-0.31633487,1.3482816,-2.8070831,0.17114303,-1.1980263,1.6381292,-0.07542256,-1.5729048,-2.2430518,0.5968978,-0.64510906,1.4644737,-0.79844886,-1.9899886,-2.9593377,-3.009572,0.9044928,-1.0142283,0.5787827,-1.7791563,-0.15938227,-1.045436,0.16856143,1.8516684,-2.509611,-1.1206739,-0.20169002,-0.8530415,-0.30945727,0.469084,1.3498582,1.5514109,-0.8512971,1.3694726,-2.048129,-0.869837,-0.20873286,0.14180611,0.914561,-2.9490073,0.49407688,0.18267277,-1.8589965,-0.20002043,1.6698087,-0.6315445,-0.191303,-0.50013745,0.14910568
attn_0_0_outputs,83,-1.3743229,0.66413534,-2.0014443,-1.2815259,-0.88458765,-3.31512,0.69491225,0.69225657,0.85757095,-1.8237212,0.30237365,-1.4678543,-2.7213104,-0.14878021,-3.1879544,-2.0438828,-1.425824,-0.034311485,-0.01945526,-0.8715311,2.1643634,-2.5915422,0.11019321,-0.044200398,-1.2846069,2.2907233,-0.12853013,1.3245969,-0.5113552,-0.2400425,-0.9718545,-1.9667926,-1.6231471,-4.904606,-2.230287,-1.9567366,-0.2594158,-1.9097052,-3.3349986,-1.2068008,0.8647762,0.9724763,1.5244282,-0.33999598,0.36091235,-1.3172694,0.5333773,0.07693264,0.47653437,-0.58479816,0.593584,-1.8756671,-0.08648641,0.8209327,-0.19515799,1.1267161,0.25440738,0.10123976,0.6992211,0.89349914,0.67311406,-0.9080301,0.016742881,-2.1584754,2.4888575,-1.4735359,-3.3122692,0.10711799,-0.20309432,0.033954516,-1.9641134,-2.4013984,-0.44394556,-0.5170249,1.4451716,2.0613675,-2.3247128,-1.4881243,1.3480082,0.54040295,0.9652745,1.7345434,2.436379,-3.7852764,-4.6531577,-0.72631747,0.57721883,0.22945796,-2.7672346,1.9843484,-1.8042513,-1.0957584,1.4872472,-1.0509282,0.11101576,-0.8450565,1.2850482,-0.66121703,0.7040013
attn_0_0_outputs,84,-0.43002146,-1.0009491,-1.4190464,-0.24795166,-1.4391614,1.6196141,1.3007406,1.2395504,-0.30326116,-0.1527849,-0.20498,2.0282218,1.7368412,-3.2169752,1.2972927,-0.5146519,0.95290893,0.32711667,-2.2825847,-0.49075973,-2.12345,-0.88222605,-1.9268994,0.8603697,-0.06869615,1.1548855,-1.2653285,0.19373623,-1.5280215,-0.5408957,0.42180339,-1.2190474,-0.77441,-3.6603353,-0.47281316,-3.7505968,-0.8070491,-2.0817666,0.11797174,0.82126176,-1.3532597,1.8626832,1.2109854,1.1803164,1.2284311,-0.37596688,-2.9475238,1.3588009,0.37230787,-2.7184105,0.27113786,-0.59933966,-1.2163569,-0.20626076,-0.4841717,-3.1845975,-1.8372022,0.7637267,-0.98337203,0.87916183,-1.2551674,-2.7540028,0.53147244,0.55987084,1.3889897,-0.6757459,-0.07545235,-2.161261,0.087474205,0.3802692,0.9879767,-2.6306562,-0.8008026,1.4970536,-2.246544,0.68199575,0.7897601,-0.106515005,-1.6855041,0.608788,1.6436753,-0.011560135,-2.7118585,2.7782984,-0.4739047,1.6416963,0.10262163,-3.220702,0.26900852,-0.46414155,-1.8804134,-0.4614319,-3.1685064,0.7641769,-1.6588442,1.0501329,0.94853204,1.6903832,-0.46692523
attn_0_0_outputs,85,-0.977539,-0.29787356,-0.9592618,-0.18405563,-1.6547246,-1.1480933,-0.39574713,-0.8782051,0.9774408,-1.6153105,-2.7477314,-1.4468879,-0.43666548,1.3910627,1.0229225,-0.5063861,-2.68085,-0.64200795,2.489132,-0.7630763,0.6783615,-1.1849447,-0.08557239,0.7276739,-0.56020254,-0.9503737,1.30273,-1.8763335,2.2325356,-1.8251483,-1.5377728,-0.011937915,-2.5374918,1.2549254,-0.9366473,-0.006034627,-0.36259246,-0.13569246,-0.66463405,0.3573768,-0.2731341,-0.115002565,-0.17133847,-4.0724254,0.56117886,-0.567315,0.57622623,0.5875772,-0.57488775,-0.22908269,-0.7614909,-2.127702,0.07686351,-0.0968215,-0.17704359,-0.73196435,1.4112359,-1.1562515,0.7426693,1.2774754,-2.4849644,2.1161904,0.8860239,-0.4312388,-0.5909899,0.67966425,1.1296883,-1.9609363,1.717339,0.21532768,0.117824726,-0.5852349,-1.7349123,-0.63463354,-1.7213553,-2.2781253,-2.7006228,-2.2660637,-0.05737339,0.3594769,-1.0119333,1.316522,-1.2706275,0.25387338,2.7552798,-0.8203801,0.31757802,-0.024705034,0.16804866,3.2937582,-0.8705506,-2.6792157,-3.1818905,0.6848658,-1.0988379,-0.7720094,-2.2997048,-0.9390645,-1.1077044
attn_0_0_outputs,86,0.863784,-1.957671,-1.8639563,-2.9849496,-0.7979255,-1.8700393,-1.01896,1.5217366,1.2169026,-1.0117253,-0.008491542,-0.6026089,0.8023451,-0.0037642708,-1.7111231,0.2633118,-0.13929981,0.48936105,-0.9270171,-0.5294582,-2.4768572,0.23712999,0.05578942,-1.2978364,0.017188542,0.80947953,0.78725135,2.9984632,-4.1448936,-0.0800219,-1.6035323,1.081253,-1.331602,0.3029353,-1.0029094,-3.5420995,2.1133695,0.2775127,-0.9114433,-0.534069,1.1598622,1.7627734,-1.885099,-0.11447011,-1.1834711,0.1190086,0.14014252,-0.3489363,1.1769301,0.5838342,-1.950161,-0.96232617,0.6735743,-0.732718,1.4308348,-0.2987304,-0.0822583,1.4630551,-0.34577307,0.02349522,-1.995584,-0.04820084,-0.29066637,-0.5001701,-1.8195043,-1.1943358,2.7625391,-2.2425327,-0.36281186,-1.3380504,-1.0152153,-1.0147188,-0.688365,-0.8445758,0.9170237,-1.3289372,-0.5373618,-1.5440342,0.24925958,0.65991455,0.8177695,1.429215,-0.2696553,0.5537462,-2.587473,0.48858035,0.25567645,-0.29940403,-2.9943397,0.4792203,0.8083375,0.66901845,0.6343272,-4.7205763,-0.5812519,-0.7422145,0.1919472,-0.21636204,0.82800716
attn_0_0_outputs,87,0.74628717,-0.31977543,0.54320717,1.3606393,-1.3110664,-0.79073364,0.00822926,-2.3687847,-0.8158568,-0.8662785,-1.1322979,-0.49224678,-6.577662,-0.40265515,-0.73403126,-1.1949368,-2.543858,-0.09209612,-0.8699166,-2.4065015,0.79537773,0.8602777,-0.7011756,-4.75271,0.4229796,-1.0933971,1.9659942,0.4224921,0.78150874,-1.0404949,0.68682,0.36519688,0.5668302,0.31621438,-2.1028645,-1.9139632,-0.70979315,-0.18815334,0.8081283,-1.0628029,-2.5047932,2.3070202,-1.0473497,-1.5670311,1.6861498,1.1664733,-0.5377116,-0.37823647,0.5023753,1.0666978,-2.703086,-1.7924064,0.09002783,-2.7628157,0.28024474,0.6387588,1.3375893,-2.1136017,0.9724236,-1.7340782,-1.0797949,-1.1330036,1.2858588,-1.4244368,0.3507402,1.9804034,0.28182906,-1.1899499,-0.09029751,0.21213056,-0.7649753,0.47221658,-1.3512594,-1.1083031,-0.40517423,-1.8860315,-1.8213767,-2.460855,-1.1791308,0.69426584,0.7733986,-3.8184755,0.7922337,1.2710366,1.3552943,0.19743702,2.1123447,0.7546109,-0.3470379,-1.3748258,0.38321158,0.50204784,-0.8974175,1.6188418,1.4007634,0.7582162,0.5694022,-0.7983139,-0.46909598
attn_0_0_outputs,88,-2.4741151,-0.49470043,-0.346701,-0.24700508,0.33643705,-1.7035518,-2.8116515,-0.4015943,0.52123183,-1.2906444,-0.48786312,1.6086112,1.0228148,-1.3333851,-0.012791124,0.49605307,-1.500345,-1.3377982,-3.1208613,-1.9342378,-0.76030284,-0.8162384,0.9685627,0.4510293,-2.427718,0.18725552,0.63100463,-2.30836,-0.08024641,0.033775616,1.8971415,-1.2724879,-0.80413127,0.44889328,-0.20432717,-1.3527523,-0.861327,-3.9973161,-2.8141348,-1.5543376,-1.3234645,-1.6697158,-1.8336195,-0.827672,-0.55049694,-2.1308913,-0.5105263,-1.0834364,-0.58767563,0.39937624,-0.9123629,-0.122950576,2.9219868,-0.9790369,0.4269677,-2.5359201,-0.5336603,0.35034573,0.26590103,1.9965228,1.4821082,0.4332539,2.7541428,-0.71870047,1.6201203,-0.16161561,0.9612964,-0.880846,1.4810011,0.054319575,0.80685526,-1.0109422,-0.47658417,-0.48501936,-0.75074434,-2.2351027,-0.69127685,1.1964118,-0.04605793,0.4784277,0.46050462,0.8519454,1.211478,-1.6157038,0.46956515,2.2394612,-1.6814338,1.3495317,-0.12506337,-0.5997329,-1.1338285,-0.95707613,-1.8071289,-2.2496953,-2.1333604,0.8984672,0.8692831,-0.0052014193,-1.5412585
attn_0_0_outputs,89,-1.404375,1.2782786,-0.646292,0.5529996,-0.26011372,0.5429244,-0.96620256,-2.5908332,0.16176839,0.39922535,-0.8153409,-1.6260266,-1.2970384,-2.9026146,1.1170555,-0.20089874,-2.655874,-2.2275903,-0.78084534,-2.0148664,0.24119362,-2.43368,0.22783472,0.27199385,-1.478819,-2.5483754,0.049146436,1.1215218,-1.4581758,0.1827906,0.7404881,-0.6793291,-0.39489537,-1.4940348,-1.5617247,-2.3840508,-1.2778871,0.19383998,-1.0206921,-0.5851778,-2.1877406,1.1736848,-0.72807103,0.66715926,-2.3139539,-1.0008267,0.82191664,-1.50219,0.7383105,-0.8581753,-1.200314,1.2435076,0.26426113,1.1662835,0.41451976,0.98410815,0.5416641,-0.5410748,-2.408883,0.42221284,-0.57374203,1.0878216,-0.3807731,-0.37986055,-0.61766076,0.38540712,-1.440359,1.7401639,-0.69158584,-0.96223146,0.8773966,-1.2880391,0.59688276,-1.5198733,-0.10437297,-4.144714,-0.69109935,-0.28615925,-2.5370834,-2.3643515,2.5510092,-0.37744084,0.41288096,2.1410222,2.6031396,1.0725499,-0.11541337,-0.92354584,1.9246869,-0.34541175,0.947329,-1.8420298,0.7456765,-0.024233313,-1.5952691,1.1009656,-1.7411636,0.17010957,0.7763078
attn_0_0_outputs,9,0.09188301,1.2103384,1.2360758,-1.3630458,-0.28491804,-2.3761778,0.58467585,-1.438184,-4.925293,-2.6806583,0.03917022,0.347958,-3.3816466,-2.5885444,0.16778316,-0.3790243,-1.5841525,-1.1241065,0.103137575,-2.893606,0.8277941,1.0779179,0.6654995,1.4924556,1.097592,-0.18975085,-0.48103565,-1.7199397,1.5765917,-1.8567117,-1.2514001,2.0220582,-1.0909476,1.8567563,-0.19861013,0.03766708,-1.2370963,-0.21901318,-2.414872,1.738316,-0.5825366,-1.3397799,-1.7139018,0.8535694,-1.3998224,-0.19326729,-0.8515795,0.17299628,-2.2388206,-0.63794845,-1.7487744,-1.5276592,-1.3178464,0.1781834,0.28966367,1.6477439,-0.67264193,-0.6501828,-0.33866474,-0.98364115,-0.98674893,-4.1346316,-1.449146,0.30460405,-2.8961487,-1.370018,-0.35438177,-3.4053345,0.5530458,0.4232431,0.4509026,-0.13498667,0.9193688,-1.1276597,1.0442064,-3.908184,-2.0670457,-0.16456407,-1.6875206,0.39925745,-0.5863924,-3.0508914,-0.7114499,-0.027656853,-1.0377318,-0.004619734,1.2691865,-0.3971671,0.14614956,2.5792775,0.020896284,1.0528945,-0.6701934,0.3044771,1.6172848,-0.67949426,-0.1540246,0.40899554,1.1018476
attn_0_0_outputs,90,-1.9404508,2.1360302,-0.10992077,-3.0190616,1.109166,-1.1424724,-1.1942014,-0.41171944,-1.8434801,0.07819946,-3.5931945,-0.28624594,-2.6936896,0.2576616,-2.0078065,-0.9394285,-1.6186708,0.51771045,-1.1431801,-0.9547126,0.19139513,-0.0008543497,-0.14868872,0.6631949,0.4258964,2.33929,0.5323856,-3.1482728,-0.0730419,0.9801045,-1.9238762,-1.4683244,-0.8752615,-0.97495383,0.90746343,0.0669436,0.9647614,-0.017261874,-2.455041,-2.0518503,-1.2818786,-1.4284829,-1.3729248,-1.9726177,-1.1803607,1.2444189,-0.080413915,-0.29917693,-2.1020496,-0.8977193,0.21564013,-0.7053826,-1.0823699,-0.5285527,0.65641737,0.7348132,-1.4345189,1.2784007,-2.151717,0.97569454,1.7457422,-0.86313856,0.41048098,-1.4827838,1.532226,0.48155755,0.4922335,-0.8961487,-1.7383461,-2.1585655,-0.540533,1.1009309,-1.1550608,-3.8714023,1.3988969,-1.0222971,-1.0527974,-0.47242147,-0.2341235,-0.95520216,0.57375073,-0.9058705,0.52591145,2.145829,-2.2208457,-0.1515778,-1.1586819,-0.0040249093,0.98191726,-1.1242633,1.8041517,-0.7634331,0.56370914,0.4831468,-0.46099025,0.7678029,0.6202446,0.47479254,0.32572097
